svm_type c_svc
kernel_type rbf
gamma 0.03125
nr_class 11
total_sv 847
rho -1.04132 2.15945 2.10188 2.54826 -0.51428 1.41033 1.12747 1.78227 2.20277 1.00013 2.8666 2.55259 3.24303 0.165575 2.45814 1.95604 2.78662 3.38895 1.82944 1.70501 0.447759 -1.89771 -0.461016 -0.596679 0.634307 0.658186 -0.649381 -1.03876 -2.25178 -1.65796 -1.34086 -1.3468 -1.27652 -1.19348 -1.7592 -0.601232 -1.46036 -0.657068 0.551617 -1.3357 1.52793 1.06143 1.59844 2.14211 1.164 -0.37006 0.309182 1.03718 -0.433377 0.345754 1.31324 -0.191097 0.783171 -0.519336 -1.48466
label 0 1 2 3 4 5 6 7 8 9 10
probA -3.51771 -3.62942 -4.27616 -3.59235 -3.4277 -5.16892 -3.09844 -4.0352 -4.23497 -3.69666 -3.86281 -5.33167 -4.91894 -4.05472 -4.54972 -3.52859 -3.39912 -4.93984 -3.8195 -3.92586 -4.58051 -4.21626 -4.90989 -3.62645 -2.98413 -4.32093 -4.45505 -4.95471 -3.7478 -4.60603 -5.00538 -4.08979 -4.25619 -5.88797 -3.89807 -5.39875 -2.41817 -3.09177 -3.869 -4.23287 -3.66778 -3.4275 -3.83145 -3.24291 -3.15192 -3.6288 -5.55349 -4.17832 -4.84192 -3.14409 -3.35001 -3.64602 -4.44263 -4.79717 -4.73462
probB -0.362688 0.131789 0.112352 0.242465 0.234748 0.140442 0.161821 0.392394 -0.0491739 0.0723765 0.214183 0.708239 0.771069 0.552895 0.873938 0.540233 0.63165 0.488009 0.407499 0.0969758 -0.195418 -0.0439291 -0.201321 -0.361561 -0.128913 -0.203987 -0.106692 -0.349849 -0.294734 -0.176705 0.0413615 -0.044436 -0.184494 -0.584013 0.0507549 0.167293 -0.0891008 -0.0837927 0.0498505 -0.0946863 0.0288653 -0.0125697 0.0379488 -0.123671 -0.0286969 -0.186374 -0.333346 0.00156818 -0.438973 0.0747425 0.080661 0.130735 0.233695 -0.274735 -0.0422193
nr_sv 76 73 76 79 80 72 74 80 79 79 79
SV
2 2 1.269848751262191 1.530639463270421 1.217170450563637 1.706805734356303 1.897147307503573 1.846455850688174 2 2 0:-0.727589 1:-1 2:-1 3:-0.78495 4:-1 5:-1 6:-1 7:-1 8:-1 9:-1 10:-0.698918 11:-1 12:-0.897846 13:-0.37633 14:-1 15:-1 16:-1 17:-1 18:-1 19:-1 20:-1 21:-1 22:-1 23:-1 24:-1 25:-1 26:-1 27:-1 28:-1 29:-1 30:-0.31184 31:-1 32:-1 33:-0.645151 34:-1 35:-1 36:-1 37:-0.61291 38:-1 39:-1 40:-1 41:-1 42:-0.668807 43:-1 44:-1 45:-1 46:-1 47:-1 48:-1 49:-1 50:-1 51:-1 52:-1 53:-1 54:-1 55:-0.65592 56:-1 57:-1 58:-1 59:-1 60:-1 61:-0.333344 62:-1 63:-1 64:-1 65:-0.849458 66:-1 67:-1 68:-1 69:-1 70:-1 71:-1 72:-1 73:-1 74:-1 75:-1 76:-1 77:-1 78:-0.741936 79:-1 80:-0.286034 81:-0.56988 82:-0.655904 83:-1 84:-0.698918 85:-1 86:-1 87:-1 88:-1 89:-1 90:-0.741941 91:-1 92:-1 93:-1 94:-1 95:0.182818 96:-1 97:-0.726568 98:-0.720422 99:-0.913976 100:-1 101:-1 102:-1 103:-1 104:-1 105:-1 106:-0.849458 107:-1 108:-1 109:-1 110:-1 111:-0.881717 112:-1 113:-0.664173 114:-0.59676 115:-1 116:-1 117:-1 118:-0.526873 119:-1 120:-0.795693 121:-1 122:-1 123:-1 124:-1 125:-0.720422 126:-1 127:-1 128:-0.806446 129:-1 130:-1 131:-1 132:-1 133:-1 134:-1 135:-1 136:-1 137:-1 138:-1 139:-1 140:-1 141:-1 142:-1 143:-1 144:-1 145:-1 146:-1 147:-1 148:-1 149:-1 150:-0.741936 151:-1 152:-1 153:-1 154:-1 155:-1 156:-1 157:-1 158:-0.548374 159:-1 160:-1 161:-1 162:-0.677412 163:-0.31184 164:-1 165:-1 166:-0.849458 167:-1 168:-1 169:-1 170:-0.78494 171:-1 172:-1 173:-1 174:-1 175:-1 176:-0.91398 177:-1 178:-1 179:-1 180:-1 181:-1 182:-1 183:-1 184:-1 185:-1 186:-0.838705 187:-1 188:-1 189:-1 190:-1 191:-1 192:-1 193:-1 194:-1 195:-1 196:-1 197:-1 198:-0.612895 199:-1 200:-1 201:-1 202:-1 203:-1 204:-1 205:-1 206:-1 207:-0.559123 208:-0.677412 209:-1 210:-1 211:-1 212:-1 213:-0.612895 214:-0.5699 215:-1 216:-1 217:-1 218:-1 219:-1 220:-1 221:-1 222:-1 223:-1 224:-0.763434 225:-1 226:-1 227:-1 228:-1 229:-1 230:-1 231:-1 232:-0.56988 233:-0.731175 234:-1 235:-1 236:-1 237:-1 238:-0.440851 239:-0.48386 240:-1 241:-0.913976 242:-1 243:-1 244:-1 245:-1 246:-1 247:-1 248:-1 249:-1 250:-1 251:-0.838705 252:-1 253:-1 254:-1 255:-1 256:-1 257:-1 258:-1 259:-0.548388 260:-1 261:-1 262:-0.749096 263:-1 264:-1 265:-1 266:-1 267:-1 268:-1 269:-1 270:-1 271:-1 272:-0.78494 273:-1 274:-1 275:-1 276:-1 277:-1 278:-0.623646 279:-1 280:-1 281:-1 282:-1 283:-1 284:-1 285:-1 286:-1 287:-1 288:-0.580646 289:-1 290:-1 291:-1 292:-1 293:-1 294:-1 295:-1 296:-0.602139 297:-1 298:-1 299:-1 300:-1 301:-1 302:-1 303:-1 304:-1 305:-1 306:-1 307:-0.438163 308:-1 309:-0.89247 310:-1 311:-0.602139 312:-1 313:-0.225801 314:-1 315:-1 316:-1 317:-1 318:-0.727589 319:-0.655904 320:-1 321:-0.542999 322:-1 323:-0.770603 324:-1 325:-0.913976 326:-0.526873 327:-1 328:-1 329:-0.156997 330:-1 331:-0.698918 332:-1 333:-1 334:-1 335:-1 336:-1 337:-1 338:-1 339:-1 340:-1 341:-1 342:-1 343:-0.698918 344:-0.827952 345:-0.655904 346:-1 
0.8599771358744385 0 0.07173600932843484 1.39824813232118 2 0 0 0 0 0 0:-0.871407 1:-0.77158 2:-1 3:-1 4:-1 5:-1 6:-1 7:-1 8:-1 9:-1 10:-1 11:-1 12:-0.951778 13:-0.705594 14:-0.705594 15:-0.7462 16:-1 17:-1 18:-1 19:-1 20:-1 21:-0.827417 22:-1 23:-1 24:-1 25:-1 26:-0.807114 27:-1 28:-0.816137 29:-1 30:-1 31:-1 32:-1 33:-0.832492 34:-0.367658 35:-0.208154 36:-0.756352 37:-1 38:-0.837568 39:-0.7462 40:-1 41:-0.94924 42:-1 43:-0.375646 44:-0.784778 45:-1 46:-1 47:-0.879192 48:-1 49:-0.79406 50:-1 51:-1 52:-1 53:-1 54:-0.847721 55:-0.837568 56:-0.928936 57:-1 58:-0.89848 59:-1 60:-0.776658 61:-0.842644 62:-1 63:-1 64:-0.4924 65:-0.857872 66:-0.700177 67:-1 68:-0.634531 69:-1 70:-1 71:-1 72:-1 73:-1 74:-1 75:-1 76:-1 77:-1 78:-1 79:-0.751274 80:-1 81:-1 82:-0.837568 83:-0.505937 84:-1 85:-1 86:-1 87:-1 88:-1 89:-1 90:-0.878176 91:-1 92:-1 93:-1 94:-1 95:-0.441646 96:-1 97:-1 98:-0.736048 99:-0.959392 100:-1 101:-0.903556 102:-1 103:-1 104:-0.711685 105:-0.868024 106:-1 107:-0.675136 108:-1 109:-1 110:-1 111:-1 112:-1 113:-1 114:-0.619298 115:-1 116:-1 117:-1 118:-0.776658 119:0.258913 120:-0.807112 121:-1 122:-0.817265 123:-1 124:-1 125:-1 126:-0.573616 127:-1 128:-0.908632 129:-1 130:-1 131:-1 132:-1 133:-1 134:-1 135:-1 136:-1 137:-1 138:-0.807114 139:-0.89848 140:-1 141:-1 142:-1 143:-1 144:-0.92386 145:-0.580383 146:-0.837568 147:-1 148:-0.837568 149:-1 150:-1 151:-0.837568 152:-1 153:-1 154:-1 155:-1 156:-1 157:-1 158:-0.786808 159:-1 160:-1 161:-1 162:-0.695442 163:-1 164:-1 165:-1 166:-1 167:-1 168:-1 169:-1 170:-1 171:-1 172:-1 173:-1 174:-0.725896 175:-1 176:-1 177:-0.807114 178:-1 179:-0.874792 180:-0.512704 181:-1 182:-0.69544 183:-1 184:-1 185:-1 186:-0.92386 187:-0.604072 188:-1 189:-1 190:-1 191:-1 192:-1 193:-1 194:-1 195:-0.918784 196:-1 197:-0.715746 198:-0.817265 199:-1 200:-1 201:-0.939088 202:-1 203:-1 204:-1 205:-1 206:-1 207:-1 208:-0.847721 209:-1 210:-1 211:-1 212:-0.258906 213:-1 214:-1 215:-1 216:-1 217:-1 218:-1 219:-1 220:-1 221:-1 222:-0.654835 223:-1 224:-1 225:-1 226:-1 227:-0.776658 228:-1 229:-1 230:-0.619298 231:-1 232:-0.59392 233:-1 234:-0.4924 235:-0.79696 236:-0.92386 237:-1 238:-1 239:-0.756354 240:-1 241:-0.959392 242:-1 243:-1 244:-0.79696 245:-0.614227 246:-0.670058 247:-1 248:-1 249:-1 250:-1 251:-1 252:-1 253:-1 254:-0.857873 255:-1 256:-0.763119 257:-1 258:-1 259:-0.928936 260:-1 261:-1 262:-1 263:-0.813204 264:-0.882237 265:-0.558397 266:-1 267:-1 268:-1 269:-1 270:-1 271:-1 272:-1 273:-1 274:-1 275:-0.89848 276:-1 277:-1 278:-1 279:-1 280:-1 281:-1 282:-1 283:-1 284:-0.441617 285:-0.583764 286:-0.925552 287:-1 288:-0.934012 289:-1 290:-0.695442 291:0.321818 292:-1 293:-0.715742 294:-1 295:-0.89848 296:-1 297:-1 298:-0.776658 299:-1 300:-0.472069 301:-1 302:-1 303:-1 304:-0.680212 305:-1 306:-1 307:-1 308:-1 309:-0.89848 310:-1 311:-0.812188 312:-1 313:-0.63451 314:-0.857873 315:-1 316:-0.637907 317:-1 318:-0.871407 319:-0.675136 320:-0.903556 321:-0.784271 322:-1 323:-0.458539 324:-0.918784 325:-0.959392 326:-0.776658 327:-1 328:-1 329:-1 330:-1 331:-1 332:-0.791882 333:-1 334:-0.686738 335:-1 336:-1 337:-1 338:-1 339:-0.837568 340:-0.855843 341:-0.715742 342:-0.812188 343:-1 344:-0.67512 345:-1 346:-1 
0 0.2537220903610611 0.1696201126738739 0 0.2578850423589787 0.05150158302914604 0.6646474147608507 0 0 0 0:-1 1:-1 2:-1 3:-0.93506 4:-0.757576 5:-1 6:-0.818169 7:-1 8:-0.22076 9:-1 10:-1 11:-0.75323 12:-0.938307 13:-1 14:-1 15:-1 16:-1 17:-1 18:-1 19:-1 20:-1 21:-0.779206 22:-0.796522 23:-1 24:-1 25:-1 26:-1 27:-0.792192 28:-1 29:-1 30:-1 31:-1 32:-1 33:-1 34:-0.494425 35:-1 36:-0.896096 37:-0.415575 38:-1 39:-1 40:-1 41:-1 42:-1 43:-0.733743 44:-0.862328 45:-1 46:-1 47:-1 48:-1 49:-0.868265 50:-1 51:-1 52:-1 53:-1 54:-0.415573 55:-0.896096 56:-1 57:-0.636333 58:-1 59:-1 60:-0.714267 61:-0.597402 62:-1 63:-0.389576 64:-1 65:-1 66:-0.80821 67:-1 68:-1 69:-1 70:-0.909084 71:0.29872 72:-1 73:-1 74:-1 75:-1 76:-1 77:-0.792192 78:-1 79:-1 80:-0.784399 81:-1 82:-0.584416 83:-1 84:-0.818169 85:-0.636333 86:-0.681791 87:-1 88:-0.636333 89:-0.844156 90:-1 91:-1 92:-1 93:-0.87012 94:-1 95:-1 96:-1 97:-0.834868 98:-1 99:-0.948048 100:-1 101:-1 102:-1 103:-1 104:-0.815572 105:-1 106:-1 107:-0.792192 108:-1 109:-1 110:-1 111:-1 112:-1 113:-0.797186 114:-0.512984 115:-1 116:-1 117:-1 118:-1 119:-0.194804 120:-1 121:-1 122:-1 123:-1 124:-1 125:-0.831156 126:-1 127:-0.948048 128:-0.883108 129:0.880539 130:-1 131:-1 132:-1 133:-1 134:-1 135:-1 136:-1 137:-1 138:-1 139:-0.87012 140:-1 141:-1 142:-1 143:-0.871564 144:-0.90259 145:-1 146:-1 147:-1 148:-0.792192 149:-1 150:-0.948048 151:-1 152:-1 153:-1 154:-1 155:-1 156:-1 157:-1 158:-1 159:-0.68829 160:-1 161:-1 162:-0.415573 163:-1 164:-0.805195 165:-1 166:-1 167:-0.857132 168:-1 169:-1 170:-1 171:-1 172:-0.6753 173:-0.922072 174:-1 175:-1 176:-1 177:-1 178:-0.74026 179:-1 180:-0.792192 181:-1 182:-1 183:-1 184:-0.627704 185:-1 186:-1 187:-0.493467 188:-1 189:-1 190:-0.636366 191:-1 192:-1 193:-1 194:-1 195:-1 196:-1 197:-0.818169 198:-1 199:-1 200:-0.831156 201:-1 202:-0.792192 203:-0.766218 204:-0.766218 205:-0.743487 206:-1 207:-1 208:-0.610392 209:-0.93506 210:-1 211:-0.701274 212:-1 213:-1 214:-0.87012 215:-1 216:-1 217:-1 218:-0.194804 219:-0.558446 220:-1 221:-1 222:-1 223:-1 224:-0.857132 225:-1 226:-1 227:-1 228:-0.818169 229:-1 230:-0.756473 231:-1 232:-0.48052 233:-0.675325 234:-0.6753 235:-1 236:-1 237:-1 238:-0.662316 239:-1 240:-0.512023 241:-0.948048 242:-1 243:-1 244:-0.87012 245:-1 246:0.688323 247:-1 248:-1 249:-1 250:-1 251:-0.90259 252:-1 253:-1 254:-1 255:-1 256:-0.848473 257:-1 258:-1 259:-1 260:-1 261:-1 262:-1 263:-1 264:-0.849339 265:-1 266:-1 267:-1 268:-1 269:-1 270:-1 271:-1 272:-1 273:-1 274:-0.558412 275:-1 276:-1 277:-1 278:-1 279:-1 280:-1 281:-1 282:-1 283:-0.512975 284:-0.714286 285:-0.733743 286:-1 287:-1 288:-1 289:-1 290:-1 291:-1 292:-1 293:-0.636333 294:-0.831156 295:-0.93506 296:-1 297:-0.844143 298:-0.714267 299:-0.818182 300:-0.493493 301:-1 302:-1 303:-1 304:-1 305:-0.415579 306:-1 307:-1 308:-1 309:-1 310:-1 311:-1 312:-1 313:-1 314:-0.818169 315:-1 316:-1 317:-1 318:-1 319:-1 320:-0.876614 321:-1 322:-1 323:-0.861461 324:-1 325:-1 326:-1 327:-1 328:-1 329:-1 330:-1 331:-0.818169 332:-0.467528 333:-1 334:-0.732838 335:-1 336:-0.435034 337:-1 338:-1 339:-0.930731 340:-1 341:-1 342:-1 343:-1 344:-1 345:-1 346:-1 
2 2 2 1.21812774751004 2 1.640268478414244 1.308984243175244 1.543686986021942 2 0.3351993012451815 0:-1 1:-1 2:-0.758626 3:-0.82759 4:-1 5:-1 6:-1 7:-1 8:-1 9:-1 10:-0.517255 11:-1 12:-0.83621 13:-1 14:-1 15:-1 16:-1 17:-1 18:-1 19:-1 20:-1 21:-1 22:-1 23:-1 24:-1 25:-0.252892 26:-1 27:-1 28:-1 29:-1 30:-1 31:-1 32:-1 33:-1 34:-1 35:-1 36:-1 37:-0.689662 38:-1 39:-1 40:-1 41:-0.82759 42:-1 43:-1 44:-1 45:-1 46:-1 47:-1 48:-1 49:-1 50:-1 51:-1 52:-1 53:-1 54:-1 55:-1 56:-1 57:-1 58:-1 59:-1 60:-1 61:-1 62:-1 63:-1 64:-1 65:-1 66:-1 67:-1 68:-1 69:-1 70:-1 71:-1 72:-0.82759 73:-1 74:-1 75:-1 76:-1 77:-0.448288 78:-0.448272 79:-1 80:-1 81:-1 82:-1 83:-1 84:-1 85:-1 86:-1 87:-1 88:-1 89:-1 90:-0.793108 91:-1 92:-1 93:-1 94:-1 95:-1 96:-1 97:-1 98:-0.551734 99:-0.862072 100:-1 101:-0.0172425 102:-1 103:-1 104:-1 105:-1 106:-0.758626 107:-0.448288 108:-1 109:-1 110:-0.568975 111:-0.810349 112:-1 113:-1 114:-1 115:-1 116:-1 117:-1 118:-1 119:-1 120:-0.344822 121:-1 122:-1 123:-1 124:-0.586214 125:-1 126:-1 127:-0.862072 128:-1 129:-1 130:-1 131:-1 132:-1 133:-1 134:-0.2069 135:-1 136:-1 137:-1 138:-1 139:-1 140:-1 141:-1 142:-1 143:-1 144:-0.741384 145:-1 146:-1 147:-1 148:-1 149:-1 150:-0.586208 151:-1 152:-1 153:-1 154:-1 155:-1 156:-1 157:-1 158:-1 159:-1 160:-1 161:-1 162:-0.482773 163:-1 164:-0.741384 165:-1 166:-0.517238 167:-1 168:-0.82759 169:-1 170:-1 171:-1 172:-1 173:-0.793108 174:-1 175:-1 176:-0.931036 177:-1 178:-1 179:-1 180:-1 181:-1 182:-1 183:-1 184:-1 185:-1 186:-0.741384 187:-1 188:-1 189:-1 190:-1 191:-1 192:-1 193:-1 194:-1 195:-1 196:-1 197:-1 198:-1 199:-1 200:-1 201:-0.586205 202:-0.448288 203:-1 204:-1 205:-1 206:-1 207:-1 208:-1 209:-0.82759 210:-1 211:-1 212:-1 213:-1 214:-1 215:-1 216:-1 217:-1 218:-1 219:-1 220:-1 221:-1 222:-1 223:-1 224:-0.620698 225:-1 226:-1 227:-1 228:-1 229:-1 230:-1 231:-1 232:-1 233:-1 234:-0.13795 235:-1 236:-1 237:-1 238:-1 239:-1 240:-1 241:-0.862072 242:-1 243:-1 244:-1 245:-1 246:-1 247:-1 248:-1 249:-1 250:-1 251:-1 252:-0.724144 253:-1 254:-1 255:-1 256:-1 257:-1 258:-1 259:-1 260:-1 261:-1 262:-1 263:-0.365533 264:-1 265:-1 266:-1 267:-0.689662 268:-0.65518 269:-1 270:-1 271:-1 272:-1 273:-1 274:-1 275:-1 276:-1 277:-0.82759 278:-1 279:-1 280:-1 281:-1 282:-1 283:-1 284:-1 285:-1 286:-1 287:-1 288:-1 289:-1 290:-1 291:-1 292:-1 293:-1 294:-1 295:-1 296:-1 297:-1 298:-1 299:-1 300:-1 301:-0.724144 302:-1 303:-1 304:-1 305:-1 306:-1 307:-1 308:-1 309:-1 310:-1 311:-1 312:-1 313:-1 314:-1 315:-1 316:-1 317:-1 318:-0.563226 319:-1 320:-1 321:-1 322:-0.65518 323:-1 324:-1 325:-1 326:-1 327:-1 328:-1 329:-1 330:-1 331:-1 332:-1 333:-1 334:-0.645327 335:-1 336:-1 337:-1 338:-1 339:-1 340:-1 341:-1 342:-1 343:-1 344:-1 345:-1 346:-1 
0 0.6755779134700751 0 0 0 0 0 0 0 0 0:-1 1:-0.911755 2:-1 3:-0.96078 4:-1 5:-1 6:-1 7:-1 8:-1 9:-0.874496 10:-0.890185 11:-0.850965 12:-1 13:-1 14:-1 15:-1 16:-1 17:-1 18:-1 19:-1 20:-0.69411 21:-1 22:-0.631365 23:-1 24:-1 25:-1 26:-0.701968 27:-1 28:-1 29:-1 30:-1 31:-1 32:-1 33:-0.870574 34:-0.328293 35:-1 36:-0.937248 37:-0.929404 38:-0.874512 39:-1 40:-1 41:-0.96078 42:-0.758435 43:-1 44:-0.916854 45:-0.576478 46:-1 47:-0.346669 48:-1 49:-0.76134 50:-0.711342 51:-1 52:-0.905872 53:-1 54:-0.529422 55:-0.937248 56:-1 57:-1 58:-1 59:-1 60:-1 61:-1 62:-1 63:-0.631339 64:-1 65:-0.890198 66:-0.76837 67:-1 68:-0.858809 69:-1 70:-1 71:-1 72:-1 73:-1 74:-1 75:-1 76:-1 77:-1 78:-0.968624 79:-0.42351 80:-0.739613 81:-1 82:-1 83:-0.80913 84:-1 85:-1 86:-0.80782 87:-1 88:-1 89:-1 90:-1 91:-1 92:-1 93:-0.7647 94:-1 95:-1 96:-1 97:-0.700834 98:-0.69411 99:-1 100:-1 101:-0.925482 102:-0.780366 103:-1 104:-1 105:-0.898028 106:-1 107:-0.874496 108:-1 109:-1 110:-1 111:-1 112:-0.435285 113:-0.755056 114:0.0294189 115:-0.823508 116:-1 117:-1 118:-1 119:-0.756836 120:-0.925482 121:-1 122:-0.858809 123:-1 124:-0.905872 125:-0.898028 126:-1 127:-1 128:-1 129:-1 130:-1 131:-1 132:-0.890185 133:-1 134:-1 135:-1 136:-0.850965 137:-1 138:-1 139:-0.7647 140:-1 141:-1 142:-1 143:-0.922432 144:-1 145:-0.675822 146:-1 147:-1 148:-1 149:-1 150:-0.968624 151:-0.749024 152:-0.92156 153:-1 154:-1 155:-1 156:-1 157:-1 158:-1 159:-1 160:-1 161:-0.60785 162:-0.294134 163:-1 164:-0.705879 165:-1 166:-0.83529 167:-1 168:-1 169:-0.294111 170:-1 171:-0.945092 172:-0.41175 173:-1 174:-1 175:-1 176:-1 177:-1 178:-1 179:-1 180:-0.874496 181:-1 182:-0.84314 183:-1 184:-0.325498 185:-0.701968 186:-0.94117 187:-1 188:-0.839196 189:-1 190:-1 191:-1 192:-1 193:-1 194:-1 195:-1 196:-1 197:-0.780397 198:-1 199:0.0784292 200:-1 201:-0.952936 202:-1 203:-1 204:-1 205:-1 206:-1 207:-1 208:-0.176474 209:-1 210:-1 211:-1 212:-1 213:-0.435309 214:-0.84314 215:-1 216:-1 217:-1 218:-1 219:-1 220:-1 221:-1 222:-1 223:-0.8713 224:-1 225:-1 226:-1 227:-0.827434 228:-1 229:-1 230:-1 231:-1 232:-1 233:-0.60785 234:-0.60785 235:-1 236:-1 237:-1 238:-0.796058 239:-0.811746 240:-0.410655 241:-1 242:-1 243:-0.8039 244:-0.92156 245:-0.701968 246:-1 247:-0.701968 248:-1 249:-1 250:-1 251:-1 252:-0.937248 253:-1 254:-1 255:-1 256:-1 257:-0.819587 258:-1 259:-1 260:-0.858809 261:-0.887569 262:-0.725482 263:-0.711379 264:-0.727052 265:0.023533 266:-1 267:-1 268:-0.92156 269:-1 270:-1 271:-1 272:-0.92156 273:-1 274:-1 275:-1 276:-1 277:-0.96078 278:-0.725496 279:-0.717654 280:-1 281:-0.902386 282:-1 283:-1 284:-1 285:-1 286:-0.942477 287:-1 288:-1 289:-1 290:-1 291:-1 292:-0.894106 293:-1 294:-1 295:-0.88235 296:-1 297:-1 298:-1 299:-1 300:-0.592164 301:-1 302:-1 303:-1 304:-1 305:-1 306:-1 307:-0.795078 308:-1 309:-0.84314 310:-1 311:-1 312:-1 313:-0.78823 314:-1 315:-1 316:-1 317:-1 318:-0.80131 319:-0.874496 320:-1 321:-1 322:-1 323:-0.749013 324:-1 325:-1 326:-1 327:-0.850965 328:-1 329:-0.692552 330:-1 331:-1 332:-1 333:-1 334:-0.677316 335:-1 336:-1 337:-1 338:-0.84314 339:-0.958165 340:-0.888616 341:-1 342:-0.709809 343:-0.890185 344:-0.937248 345:-0.874496 346:-0.450982 
1.853062291102745 0.8404214746257724 1.568453467633284 1.436776750219633 0.4916703637627655 2 0.9663586215136815 0.6771239209037687 2 0.8934967725253856 0:-0.794039 1:-1 2:-1 3:-1 4:-0.84824 5:-0.804879 6:-1 7:-0.401634 8:-1 9:-1 10:-1 11:-1 12:-0.922765 13:-1 14:-1 15:-0.5935 16:-1 17:-1 18:-1 19:-0.0569266 20:-1 21:-0.447164 22:-1 23:-0.718933 24:-1 25:-0.295402 26:-1 27:-1 28:-1 29:-1 30:-1 31:-1 32:-1 33:-1 34:-1 35:0.268265 36:-1 37:-0.70732 38:-0.86992 39:0.626 40:-1 41:-0.9187 42:-1 43:-1 44:-1 45:-0.56098 46:-1 47:-1 48:-1 49:-1 50:-1 51:-1 52:-1 53:-1 54:-1 55:-0.86992 56:-1 57:-1 58:-1 59:-1 60:-1 61:-1 62:-0.93496 63:-1 64:-1 65:-1 66:-0.0395747 67:-1 68:-1 69:-1 70:-1 71:-0.6748 72:-0.9187 73:-1 74:-1 75:-1 76:-1 77:-1 78:-0.86992 79:-0.601627 80:-1 81:-1 82:-0.47968 83:-1 84:-1 85:-1 86:-1 87:-1 88:-1 89:-1 90:-0.80488 91:-1 92:-1 93:-1 94:-1 95:-1 96:-1 97:-1 98:-0.78862 99:-0.93496 100:-1 101:-1 102:-1 103:-1 104:-1 105:-0.78862 106:-1 107:-1 108:-1 109:-1 110:-1 111:-0.73171 112:-1 113:-0.746092 114:-1 115:-1 116:-1 117:-1 118:-1 119:-1 120:-1 121:-1 122:-1 123:-1 124:-0.804879 125:-1 126:-1 127:-0.93496 128:-1 129:-0.411381 130:-1 131:-1 132:-1 133:-0.89431 134:-1 135:-1 136:-1 137:-0.88618 138:-1 139:-1 140:-1 141:-1 142:-1 143:-1 144:-1 145:-1 146:-1 147:-1 148:-1 149:-1 150:-0.86992 151:-0.73984 152:-1 153:-1 154:-0.647701 155:-0.93496 156:-1 157:-0.609763 158:-1 159:-1 160:-0.715451 161:-1 162:-1 163:-1 164:-1 165:-0.840357 166:-1 167:-1 168:-1 169:-0.85366 170:-1 171:-1 172:-0.187 173:-0.80488 174:-1 175:-1 176:-0.93496 177:-1 178:-1 179:-0.79946 180:-1 181:-1 182:-1 183:-1 184:-1 185:-1 186:-1 187:-1 188:-1 189:-1 190:-1 191:-1 192:-1 193:-1 194:-1 195:-1 196:-1 197:-0.772361 198:-1 199:-1 200:-1 201:-0.707321 202:-1 203:-1 204:-1 205:-1 206:-1 207:-1 208:-1 209:-0.9187 210:-1 211:-1 212:-1 213:-0.414645 214:-1 215:-1 216:-1 217:-0.92954 218:-1 219:-1 220:-1 221:-1 222:-1 223:-0.733215 224:-0.82114 225:-1 226:-1 227:-1 228:-1 229:-1 230:-1 231:-1 232:-1 233:-0.79675 234:-0.5935 235:-1 236:-1 237:-1 238:-1 239:-1 240:-1 241:-0.86992 242:-1 243:-1 244:-1 245:-0.691062 246:-1 247:-1 248:-1 249:-1 250:-1 251:-0.87805 252:-0.73984 253:-1 254:-1 255:-1 256:-0.810299 257:-0.626018 258:-1 259:-0.88618 260:-1 261:-1 262:-0.810299 263:-1 264:-1 265:-0.292705 266:-1 267:-1 268:-1 269:-1 270:-1 271:-1 272:-0.8374 273:-1 274:-1 275:-1 276:-1 277:-1 278:-1 279:-1 280:-1 281:-1 282:-1 283:-1 284:-1 285:-1 286:-0.88076 287:-1 288:-0.78862 289:-1 290:-1 291:-1 292:-1 293:-1 294:-1 295:-0.9187 296:-1 297:-1 298:-1 299:-1 300:-1 301:-0.86992 302:-1 303:-1 304:0.024381 305:-0.634146 306:-1 307:-0.575213 308:-1 309:-1 310:-0.73984 311:-1 312:-1 313:-1 314:-1 315:-1 316:-1 317:-1 318:-0.794039 319:-0.73984 320:-0.382119 321:-1 322:-0.8374 323:-1 324:-0.73984 325:-0.73984 326:-0.642284 327:-1 328:-1 329:-1 330:-1 331:-1 332:-1 333:-1 334:-0.832754 335:-1 336:-1 337:-1 338:-1 339:-0.91328 340:-1 341:-1 342:-1 343:-1 344:-0.86992 345:-0.73984 346:-1 
0.5982083923276942 2 2 1.612468615836879 0.04915500910066808 1.938175997486572 0.8524891878887841 1.870303617266883 2 1.035566368818829 0:-1 1:-1 2:-1 3:-1 4:-1 5:-1 6:-1 7:-1 8:-1 9:-1 10:-0.348836 11:-0.116279 12:-1 13:-1 14:-1 15:-1 16:-1 17:-1 18:-1 19:-1 20:-1 21:-1 22:-1 23:-1 24:-1 25:-1 26:-1 27:-1 28:-1 29:-1 30:-1 31:-1 32:-1 33:-1 34:-1 35:-1 36:-1 37:-1 38:-1 39:-1 40:-1 41:-1 42:-1 43:-1 44:-1 45:-1 46:-1 47:-1 48:-1 49:-1 50:-1 51:-1 52:-1 53:-1 54:-1 55:-1 56:-1 57:-1 58:-1 59:-1 60:-1 61:-1 62:-1 63:-1 64:-1 65:-1 66:-1 67:-1 68:-1 69:-1 70:-1 71:-1 72:-1 73:-1 74:-1 75:-1 76:-1 77:-1 78:-0.627904 79:-1 80:-1 81:-1 82:-1 83:-1 84:-1 85:-1 86:-1 87:-1 88:-1 89:-1 90:-0.441857 91:-1 92:-1 93:-1 94:-1 95:-1 96:-1 97:0.182729 98:-0.395343 99:-1 100:-1 101:-0.558135 102:-1 103:-1 104:-1 105:-1 106:-1 107:-1 108:-1 109:-1 110:-1 111:-1 112:-1 113:-1 114:-1 115:-1 116:-1 117:-1 118:-1 119:-1 120:-0.558135 121:-1 122:-1 123:-1 124:-1 125:-1 126:-0.023247 127:-1 128:-0.162783 129:-1 130:-1 131:-0.848836 132:-1 133:-1 134:-1 135:-1 136:-1 137:-1 138:-1 139:-1 140:-1 141:-1 142:-1 143:-1 144:-1 145:-1 146:-1 147:-0.209296 148:-1 149:-1 150:-0.813952 151:-1 152:-1 153:-1 154:-1 155:-1 156:-1 157:-1 158:-1 159:-1 160:-1 161:-1 162:-1 163:-1 164:-1 165:-1 166:-1 167:-1 168:-1 169:-1 170:-1 171:-1 172:-1 173:-1 174:-1 175:-1 176:-1 177:-1 178:-1 179:-1 180:-1 181:-1 182:-1 183:-1 184:1 185:-1 186:-1 187:-1 188:-1 189:-1 190:-1 191:-1 192:-1 193:-1 194:-1 195:-1 196:-1 197:-1 198:-1 199:-1 200:-1 201:-0.441857 202:-1 203:-1 204:-1 205:-1 206:-1 207:-1 208:-1 209:-1 210:-1 211:-1 212:-1 213:-1 214:-1 215:-1 216:-1 217:-0.596896 218:-1 219:-1 220:-1 221:-1 222:-1 223:-1 224:-1 225:-1 226:-1 227:-1 228:-1 229:-1 230:-1 231:-1 232:-1 233:-1 234:-1 235:-1 236:-1 237:-1 238:-1 239:-1 240:-1 241:-1 242:-1 243:-1 244:-1 245:-0.116279 246:-1 247:-1 248:-1 249:-1 250:-1 251:-1 252:-1 253:-1 254:-1 255:-1 256:-1 257:-1 258:-1 259:-1 260:-1 261:-1 262:-1 263:-1 264:-1 265:-1 266:-0.558135 267:-1 268:-0.06976 269:-1 270:-1 271:-1 272:-1 273:-1 274:-1 275:-1 276:-1 277:-1 278:-1 279:-1 280:-1 281:-1 282:-1 283:-0.4186 284:-1 285:-1 286:-0.658913 287:-1 288:-0.697672 289:-1 290:-1 291:-1 292:-1 293:-1 294:-1 295:-0.30233 296:-1 297:-1 298:-1 299:-1 300:-1 301:-1 302:-1 303:-1 304:-1 305:-1 306:-1 307:-1 308:-1 309:-0.06977 310:-1 311:-1 312:-1 313:-0.581392 314:-1 315:-1 316:-1 317:-1 318:-1 319:-0.255808 320:-1 321:-1 322:-1 323:-1 324:-1 325:-1 326:-1 327:-0.116279 328:-1 329:-1 330:-1 331:-1 332:-1 333:-1 334:-1 335:-1 336:-1 337:-1 338:-1 339:-1 340:-1 341:-1 342:-1 343:-1 344:-0.627904 345:-1 346:-1 
1.444251620372843 1.528764463005812 0.5972671072051406 1.929829751975918 0 2 0.5728572382292454 1.859198228130264 1.771818583593183 1.600670085816918 0:-0.652957 1:-1 2:-1 3:-1 4:-0.48859 5:-1 6:-0.61643 7:0.00820637 8:-1 9:-1 10:-1 11:-1 12:-0.869859 13:-1 14:-1 15:-1 16:-1 17:-1 18:-0.561632 19:-1 20:-1 21:-0.534238 22:-1 23:-1 24:-1 25:-1 26:-1 27:-1 28:-1 29:-1 30:-1 31:-1 32:-1 33:-1 34:-1 35:-1 36:-1 37:-0.260271 38:-1 39:-1 40:-1 41:-1 42:-1 43:-1 44:-1 45:-1 46:-1 47:-1 48:-1 49:-1 50:-1 51:-1 52:-0.671223 53:-1 54:-1 55:-0.780816 56:-1 57:-1 58:-1 59:-1 60:0.205456 61:-0.57533 62:-1 63:-1 64:-1 65:-0.616442 66:-1 67:-1 68:-0.0137159 69:-1 70:-1 71:-1 72:-1 73:-1 74:-1 75:-1 76:-1 77:-0.561632 78:-1 79:-1 80:-1 81:-1 82:-1 83:-1 84:-1 85:-1 86:-1 87:-1 88:-1 89:-1 90:-1 91:-1 92:-1 93:-1 94:-1 95:-1 96:-1 97:-0.651655 98:-0.643826 99:-1 100:-1 101:-0.739719 102:-1 103:-1 104:-1 105:-1 106:-1 107:-1 108:-1 109:-1 110:-1 111:-1 112:-1 113:-1 114:-1 115:-1 116:-1 117:-1 118:-1 119:-1 120:-0.739719 121:-1 122:-1 123:-1 124:-1 125:-1 126:-1 127:-1 128:-1 129:-1 130:-1 131:-1 132:-1 133:-1 134:-1 135:-1 136:-1 137:-1 138:-1 139:-0.72602 140:-1 141:-1 142:-1 143:-1 144:-0.794514 145:-1 146:-1 147:-1 148:-1 149:-1 150:-1 151:-1 152:-1 153:-1 154:-1 155:-1 156:-1 157:-1 158:-1 159:-1 160:-1 161:-1 162:-0.589032 163:-1 164:-0.794514 165:-1 166:-1 167:-1 168:-1 169:-1 170:-1 171:-1 172:-1 173:-1 174:-1 175:-0.45204 176:-1 177:-0.479442 178:-0.72602 179:-1 180:-1 181:-1 182:-0.72602 183:-1 184:-1 185:-1 186:-0.794514 187:-1 188:-1 189:-1 190:-1 191:-1 192:-0.61643 193:-1 194:-1 195:-1 196:-1 197:-1 198:-1 199:-1 200:-1 201:-1 202:-1 203:-1 204:-1 205:-1 206:-1 207:-1 208:-1 209:-1 210:-1 211:-1 212:-1 213:-1 214:-0.45206 215:-1 216:-1 217:-1 218:-1 219:-0.534238 220:-1 221:-1 222:-1 223:-1 224:-0.0958871 225:-1 226:-1 227:-1 228:-1 229:-1 230:-0.486284 231:-1 232:-1 233:-1 234:-1 235:0.09588 236:-0.794514 237:-1 238:-1 239:-1 240:-1 241:-1 242:-1 243:-1 244:-1 245:-1 246:-1 247:-1 248:-0.246563 249:-1 250:-1 251:-0.794514 252:-1 253:-0.23285 254:-1 255:-1 256:-1 257:-1 258:-0.589032 259:-1 260:-1 261:-0.607293 262:-0.680356 263:-0.495878 264:-0.682184 265:-1 266:-1 267:-0.753418 268:-0.45206 269:-1 270:-1 271:-1 272:-1 273:-1 274:-1 275:-1 276:-1 277:-1 278:-1 279:-1 280:-1 281:-1 282:-1 283:-1 284:-1 285:-1 286:-1 287:-1 288:-1 289:-1 290:-1 291:-1 292:-1 293:-1 294:-1 295:-1 296:-1 297:-1 298:-1 299:-1 300:-0.643826 301:-1 302:-1 303:-0.495878 304:-1 305:-1 306:-1 307:-0.284236 308:-1 309:-0.86301 310:-0.123296 311:-1 312:-1 313:-0.506854 314:-1 315:-1 316:-1 317:-1 318:-0.652957 319:0.315072 320:-1 321:-1 322:-1 323:-0.707755 324:-1 325:-1 326:-1 327:-1 328:-1 329:-1 330:-1 331:-1 332:-0.438335 333:-1 334:-0.718191 335:-1 336:-1 337:-1 338:-1 339:-1 340:-1 341:-1 342:-1 343:-1 344:-1 345:-0.561632 346:-1 
1.095980086399245 1.20048592685284 0 0 0.7036638999456029 0 0 0 0 0 0:-1 1:-0.88579 2:-1 3:-1 4:-1 5:-0.878176 6:-1 7:-1 8:-1 9:-1 10:-1 11:-1 12:-0.662436 13:-0.705594 14:-0.705594 15:-1 16:-1 17:-1 18:-0.837568 19:-1 20:-1 21:-1 22:-0.363779 23:-1 24:-1 25:-0.780041 26:-0.807114 27:-1 28:-1 29:-1 30:-0.675136 31:-1 32:-1 33:-1 34:-0.288617 35:-1 36:-0.837568 37:-0.725896 38:-0.918784 39:-0.4924 40:-1 41:-1 42:-0.687318 43:-1 44:-1 45:-0.451791 46:-1 47:-1 48:-1 49:-1 50:-1 51:-1 52:-0.878176 53:-1 54:-0.543162 55:-0.756352 56:-1 57:-1 58:-1 59:-0.4924 60:-1 61:-0.527931 62:-1 63:-1 64:-1 65:-1 66:-0.700177 67:-1 68:-1 69:-1 70:-1 71:-1 72:-0.94924 73:-0.604072 74:-1 75:-1 76:-0.654835 77:-0.837568 78:-0.959392 79:-1 80:-0.662954 81:-1 82:-0.837568 83:-1 84:-0.857873 85:-0.715742 86:-1 87:-1 88:-1 89:-1 90:-1 91:-1 92:-1 93:-0.79696 94:-1 95:-0.441646 96:-1 97:-0.612775 98:-1 99:-0.83756 100:-1 101:-1 102:-0.715742 103:-1 104:-1 105:-1 106:-1 107:-0.837568 108:-1 109:-1 110:-0.8731 111:-1 112:-1 113:-1 114:-1 115:-1 116:-1 117:-1 118:-1 119:-1 120:-1 121:-1 122:-1 123:-1 124:-0.878176 125:-1 126:-1 127:-1 128:-0.908632 129:-1 130:-1 131:-1 132:-1 133:-1 134:-1 135:-1 136:-1 137:-1 138:-1 139:-0.79696 140:-1 141:-1 142:-1 143:-1 144:-1 145:-1 146:-1 147:-1 148:-0.837568 149:-1 150:-0.959392 151:-0.837568 152:-1 153:-1 154:-1 155:-0.959392 156:-1 157:-1 158:-1 159:-1 160:-1 161:-1 162:-0.847721 163:-1 164:-0.771579 165:-1 166:-0.928936 167:-1 168:-1 169:-0.817264 170:-1 171:-1 172:-1 173:-1 174:-1 175:-1 176:-0.979696 177:-1 178:-0.89848 179:-1 180:-0.35024 181:-0.79696 182:-0.89848 183:-1 184:-0.563461 185:-1 186:-1 187:-1 188:-1 189:-1 190:-1 191:-1 192:-1 193:-1 194:-1 195:-1 196:-1 197:-0.573619 198:-1 199:-0.441646 200:-1 201:-1 202:-1 203:-1 204:-1 205:-1 206:-1 207:-1 208:-0.847721 209:-0.94924 210:-1 211:-1 212:-0.258906 213:-0.634531 214:-0.79696 215:-0.545192 216:-1 217:-1 218:-0.685287 219:-1 220:-1 221:-1 222:-1 223:-0.666864 224:-0.776656 225:-1 226:-1 227:-1 228:-1 229:-1 230:-0.619298 231:-1 232:-0.79696 233:-0.7462 234:-0.4924 235:-1 236:-1 237:-1 238:-0.736051 239:-1 240:-0.618575 241:-0.959392 242:-1 243:-1 244:-0.79696 245:-1 246:-0.670058 247:-1 248:-1 249:-1 250:-1 251:-0.92386 252:-1 253:-1 254:-1 255:-1 256:-0.88156 257:-1 258:-1 259:-0.928936 260:-1 261:-1 262:-0.763119 263:-0.813204 264:-0.646711 265:-0.558397 266:-1 267:-0.908632 268:-0.89848 269:-1 270:-1 271:-1 272:-0.79696 273:-1 274:-1 275:-1 276:-1 277:-0.69543 278:-0.82234 279:-1 280:-1 281:-0.873664 282:-1 283:-0.6193 284:-0.776656 285:-0.791882 286:-1 287:-1 288:-1 289:-1 290:-1 291:-0.559394 292:-1 293:-0.715742 294:-1 295:-1 296:-1 297:-1 298:-0.776658 299:-1 300:-0.736048 301:-1 302:-1 303:-1 304:-1 305:-1 306:-1 307:-1 308:-0.604072 309:-0.89848 310:-1 311:-1 312:-1 313:-1 314:-1 315:-1 316:-1 317:-1 318:-0.871407 319:-0.837568 320:-1 321:-1 322:-1 323:-0.783424 324:-0.918784 325:-0.959392 326:-1 327:-1 328:-1 329:-1 330:-1 331:-1 332:-0.791882 333:-1 334:-0.582296 335:-1 336:-1 337:-0.756354 338:-0.89848 339:-0.945856 340:-1 341:-0.715742 342:-1 343:-0.573619 344:-0.918784 345:-0.675136 346:-1 
2 0 0 0.1608894454591884 1.908142995578511 0.7079682138220232 2 0.5685990148115849 0 2 0:-0.913841 1:-0.77041 2:-0.952386 3:-1 4:-1 5:-1 6:-0.904773 7:-0.74965 8:-1 9:-1 10:-1 11:-1 12:-0.935371 13:-1 14:-1 15:-1 16:-1 17:-1 18:-0.673472 19:-1 20:-1 21:-1 22:-0.680276 23:-0.76481 24:-0.668017 25:-0.852624 26:-1 27:-1 28:-1 29:-0.918376 30:-1 31:-0.655317 32:-1 33:-0.887767 34:-0.894067 35:-1 36:-0.945584 37:-0.632656 38:-0.945584 39:-0.82995 40:-0.602044 41:-1 42:-0.895249 43:-0.860558 44:-1 45:-1 46:-1 47:-1 48:-1 49:-0.931009 50:-0.749687 51:-0.829925 52:-1 53:-1 54:-0.897971 55:-0.945584 56:-1 57:-1 58:-0.93198 59:-1 60:-0.700671 61:-0.789107 62:-1 63:-0.680312 64:-1 65:-1 66:-1 67:-1 68:-0.755094 69:-0.795938 70:-1 71:-1 72:-1 73:-0.734722 74:-0.870763 75:-0.886633 76:-0.884367 77:-0.891168 78:-1 79:-1 80:-0.887087 81:-1 82:-0.673472 83:-0.172328 84:-1 85:-1 86:-1 87:-1 88:-0.809542 89:-0.918364 90:-0.877552 91:-0.591816 92:-1 93:-0.79592 94:-1 95:-1 96:-0.602044 97:-1 98:-1 99:-1 100:-0.809542 101:-1 102:-0.809542 103:-0.673459 104:-0.710208 105:-1 106:-0.952386 107:-0.782304 108:-1 109:-0.895702 110:-0.914975 111:-1 112:-1 113:-0.787536 114:-0.744886 115:-0.693862 116:-0.82995 117:-1 118:-1 119:-0.789138 120:-0.935381 121:-0.955787 122:-0.877565 123:-0.873011 124:-1 125:-0.823122 126:-0.857158 127:-0.972792 128:-1 129:-1 130:-1 131:-0.911567 132:-0.71429 133:-1 134:-1 135:-0.682526 136:-1 137:-1 138:-0.741488 139:-1 140:-0.709739 141:-1 142:-0.809542 143:-1 144:-0.84694 145:-1 146:-1 147:-0.942183 148:-0.891168 149:-1 150:-0.972792 151:-1 152:-0.93198 153:-1 154:-0.557828 155:-1 156:-1 157:-0.346965 158:-1 159:-1 160:-0.761896 161:-1 162:-0.693882 163:-1 164:-0.948985 165:-1 166:-1 167:-1 168:-0.96599 169:-0.877546 170:-0.93198 171:-1 172:-1 173:-0.959188 174:-0.632638 175:-0.86396 176:-0.986396 177:-0.870763 178:-1 179:-1 180:-0.782304 181:-1 182:-1 183:-1 184:-1 185:-0.870763 186:-0.897955 187:-1 188:-0.721074 189:-0.755094 190:-1 191:-1 192:-0.904773 193:-1 194:-0.911574 195:-1 196:-0.897971 197:-1 198:-1 199:-0.251732 200:-0.823122 201:-0.877552 202:-0.891168 203:-1 204:-0.755094 205:-1 206:-1 207:-1 208:-0.795911 209:-1 210:-0.918376 211:-1 212:-1 213:-0.877565 214:-0.7279 215:-1 216:-0.5465 217:-0.970525 218:-1 219:-0.884367 220:-1 221:-0.591888 222:-1 223:-1 224:-0.551024 225:-1 226:-0.897971 227:-0.850357 228:-1 229:-1 230:-1 231:-1 232:-0.86396 233:-0.829925 234:-0.82995 235:-0.72788 236:-0.795924 237:-0.911574 238:-1 239:-1 240:-1 241:-0.945576 242:-1 243:-1 244:-1 245:-0.870763 246:-1 247:-0.741488 248:-1 249:-1 250:-1 251:-1 252:-1 253:-0.809542 254:-1 255:-0.802743 256:-0.682549 257:-0.68706 258:-0.897971 259:-0.952386 260:-1 261:-0.902504 262:-1 263:-0.874844 264:-1 265:-0.704119 266:-0.870743 267:-1 268:-0.93198 269:-1 270:-1 271:-1 272:-1 273:-0.591816 274:-1 275:-0.96599 276:-1 277:-1 278:-1 279:-1 280:-0.904758 281:-1 282:-1 283:-1 284:-0.925178 285:-0.860558 286:-0.850342 287:-1 288:-0.911561 289:-1 290:-1 291:-0.409487 292:-1 293:-1 294:-1 295:-1 296:-1 297:-0.918376 298:-0.700671 299:-1 300:-0.911574 301:-0.945584 302:-1 303:-0.874844 304:-0.785737 305:-1 306:-1 307:-0.644548 308:-1 309:-0.93197 310:-0.891168 311:-1 312:-1 313:-0.938782 314:-0.428579 315:-1 316:-1 317:-1 318:-0.913841 319:-0.673472 320:-1 321:-0.710874 322:-0.93198 323:-0.854869 324:-1 325:-1 326:-0.850357 327:-1 328:-1 329:-1 330:-0.93198 331:-1 332:-0.721074 333:-1 334:-0.930036 335:-1 336:-0.408152 337:-1 338:-0.79592 339:-0.963723 340:-0.710208 341:-1 342:-1 343:-0.904773 344:-0.945584 345:-1 346:-1 
2 0.2841144277545006 0 1.620510792681692 1.043392446514197 0.9849243455067754 2 1.769434739701957 0.06889451528039857 1.206784397399515 0:-0.92058 1:-0.858925 2:-0.95611 3:-1 4:-1 5:-0.774303 6:-0.824441 7:-0.769265 8:-0.8746 9:-1 10:-0.912221 11:-0.404393 12:-0.970217 13:-1 14:-0.818171 15:-1 16:-0.912221 17:-1 18:-0.598752 19:-0.454572 20:-0.91849 21:-1 22:-0.90177 23:-1 24:-1 25:-0.592495 26:-0.880871 27:-0.89968 28:-1 29:-0.92476 30:-1 31:-1 32:-1 33:-0.79309 34:-1 35:-1 36:-1 37:-0.88714 38:-0.799376 39:-1 40:-0.877735 41:-1 42:-1 43:-1 44:-0.800636 45:-1 46:-1 47:-1 48:-1 49:-1 50:-1 51:-0.921625 52:-0.92476 53:-0.683365 54:-0.717881 55:-0.89968 56:-1 57:-1 58:-1 59:-1 60:-0.862061 61:-0.80563 62:-1 63:-1 64:-1 65:-0.95611 66:-0.814826 67:-1 68:-1 69:-1 70:-1 71:-0.8746 72:-0.96865 73:-1 74:-0.880871 75:-0.8955 76:-1 77:-0.89968 78:-1 79:-1 80:-0.895918 81:-1 82:-0.89968 83:-1 84:-1 85:-1 86:-0.846384 87:-0.811901 88:-1 89:-1 90:-0.92476 91:-0.623796 92:-0.73669 93:-1 94:-1 95:-1 96:-1 97:-0.920282 98:-0.755496 99:-0.97492 100:-1 101:-1 102:-1 103:-1 104:-0.910967 105:-0.755496 106:-0.868344 107:-1 108:-1 109:-1 110:-0.686525 111:-1 112:-1 113:-0.902091 114:-1 115:-1 116:-0.84325 117:-1 118:-1 119:-1 120:-0.88087 121:-0.877748 122:-0.774282 123:-0.94148 124:-0.774303 125:-0.91849 126:-1 127:-1 128:-1 129:-1 130:-1 131:-0.979622 132:-0.824441 133:-0.959245 134:-1 135:-0.707399 136:-0.880871 137:-0.95611 138:-0.880871 139:-0.9373 140:-1 141:-0.605021 142:-1 143:-1 144:-0.90595 145:-0.740839 146:-1 147:-0.840132 148:-0.89968 149:-1 150:-1 151:-1 152:-1 153:-1 154:-1 155:-1 156:-1 157:-1 158:-0.73666 159:-1 160:-0.890275 161:-1 162:-0.90595 163:-1 164:-0.85894 165:-1 166:-0.95611 167:-0.93103 168:-0.96865 169:-0.88714 170:-0.8746 171:-0.95611 172:-0.84325 173:-0.96238 174:-1 175:-1 176:-0.97492 177:-0.761742 178:-0.8746 179:-0.84534 180:-1 181:-0.8746 182:-0.8746 183:-1 184:-0.820259 185:-0.880871 186:-0.764889 187:-1 188:-0.742927 189:-0.774282 190:-1 191:-1 192:-1 193:-1 194:-1 195:-0.749216 196:-1 197:-1 198:-0.5486 199:-1 200:-0.755496 201:-0.92476 202:-1 203:-1 204:-0.774282 205:-0.876168 206:-0.858924 207:-1 208:-1 209:-0.96865 210:-1 211:-1 212:-1 213:-0.887141 214:-0.8746 215:-1 216:-0.791 217:-1 218:-1 219:-1 220:-0.81192 221:-1 222:-0.786822 223:-0.691409 224:-0.793112 225:-1 226:-1 227:-1 228:-1 229:-0.811898 230:-1 231:-1 232:-1 233:-0.84325 234:-1 235:-0.8746 236:-0.90595 237:-1 238:-1 239:-0.849521 240:-1 241:-1 242:-1 243:-1 244:-0.9373 245:-0.523522 246:-0.796223 247:-1 248:-1 249:-0.818171 250:-1 251:-0.811915 252:-0.699056 253:-0.824439 254:-1 255:-1 256:-0.92685 257:-0.855789 258:-1 259:-1 260:-0.774282 261:-0.910129 262:-0.92685 263:-0.884632 264:-0.854536 265:-1 266:-1 267:-0.94357 268:-1 269:-1 270:-1 271:-1 272:-1 273:-1 274:-1 275:-0.9373 276:-1 277:-0.96865 278:-1 279:-0.887141 280:-1 281:-0.765944 282:-1 283:-1 284:-1 285:-0.742927 286:-0.90804 287:-1 288:-0.836993 289:-1 290:-0.90595 291:-0.727876 292:-0.915355 293:-1 294:-1 295:-0.9373 296:-1 297:-1 298:-0.862061 299:-1 300:-0.83698 301:-0.598752 302:-1 303:-1 304:-1 305:-1 306:-1 307:-0.508647 308:-1 309:-1 310:-0.89968 311:-0.884005 312:-0.8746 313:-0.774298 314:-0.912221 315:-0.846384 316:-1 317:-1 318:-0.92058 319:-0.89968 320:-0.761759 321:-1 322:-0.43574 323:-1 324:-0.94984 325:-1 326:-1 327:-0.761742 328:-1 329:-0.877107 330:-0.8746 331:-0.73669 332:-1 333:-0.884005 334:-1 335:-1 336:-1 337:-1 338:-1 339:-0.899691 340:-0.910967 341:-1 342:-0.652052 343:-1 344:-0.849536 345:-1 346:-1 
0 0.7992680117007253 0.7741838126037629 0 2 0.3329143146332434 0 0 1.59911704048779 0.6861739332314194 0:-1 1:-1 2:-1 3:-1 4:-1 5:-1 6:-1 7:-1 8:-0.63964 9:-1 10:-0.495499 11:-1 12:-0.572072 13:-1 14:-1 15:-1 16:-1 17:-1 18:-1 19:-1 20:-1 21:-0.693696 22:-0.717719 23:-1 24:-1 25:-1 26:-1 27:0.153152 28:-1 29:-1 30:-1 31:-1 32:-1 33:-1 34:-0.1583 35:-1 36:-0.855856 37:-1 38:-0.567568 39:-1 40:-1 41:-1 42:-1 43:-1 44:-0.80901 45:-1 46:-1 47:-0.785587 48:-1 49:-1 50:-1 51:-1 52:-1 53:-1 54:-1 55:-1 56:-0.873874 57:-1 58:-1 59:-1 60:-0.603608 61:-0.72072 62:-1 63:-0.15317 64:-1 65:-0.873874 66:-1 67:-0.725226 68:-1 69:-1 70:-1 71:-0.27928 72:-1 73:-1 74:-1 75:-1 76:-1 77:-0.423424 78:-1 79:-1 80:-0.700901 81:-1 82:-1 83:-1 84:-1 85:-1 86:-1 87:-1 88:-1 89:-1 90:-1 91:-1 92:-1 93:-1 94:-1 95:-1 96:-1 97:-1 98:-1 99:-1 100:-1 101:-1 102:-1 103:-1 104:-1 105:-1 106:-1 107:-1 108:-0.777778 109:-1 110:-1 111:-0.801802 112:-1 113:-0.71864 114:-0.66216 115:-1 116:-1 117:-1 118:-1 119:-1 120:-1 121:-1 122:-1 123:-1 124:-1 125:-1 126:-1 127:-0.927928 128:-1 129:-1 130:-1 131:-1 132:-1 133:-1 134:-1 135:-0.579579 136:-1 137:-1 138:-1 139:-0.63964 140:-1 141:-1 142:-1 143:-1 144:-1 145:-1 146:-1 147:-1 148:-1 149:-1 150:-1 151:-1 152:-1 153:-1 154:-1 155:-1 156:-1 157:-0.567571 158:-1 159:-1 160:-1 161:-1 162:0.0810746 163:-1 164:-1 165:-0.823096 166:-1 167:-1 168:-1 169:-1 170:-1 171:-1 172:-1 173:-1 174:-1 175:-1 176:-0.963964 177:-1 178:-1 179:-0.777778 180:-0.423424 181:-1 182:-1 183:-1 184:-1 185:-1 186:-1 187:-0.297297 188:-1 189:-1 190:-1 191:-1 192:-1 193:-1 194:-1 195:-1 196:-1 197:-0.495499 198:0.297286 199:-1 200:-1 201:-0.891892 202:-0.423424 203:-1 204:-1 205:-1 206:-1 207:-1 208:-0.189194 209:-1 210:-1 211:-1 212:-1 213:-0.351357 214:-1 215:-1 216:-1 217:-1 218:-1 219:-0.693696 220:-1 221:-1 222:-1 223:-1 224:-1 225:-1 226:-1 227:-1 228:-1 229:-1 230:-0.324321 231:-1 232:-1 233:-1 234:-1 235:-1 236:-0.864865 237:-1 238:-1 239:-1 240:0.353922 241:-0.855856 242:-1 243:-1 244:-0.81982 245:0.0270178 246:-1 247:-1 248:-1 249:-1 250:-1 251:-1 252:-1 253:-1 254:-1 255:-1 256:-1 257:-1 258:-1 259:-0.873874 260:-1 261:-1 262:-1 263:-0.66847 264:-1 265:-1 266:-1 267:-1 268:-1 269:-1 270:-1 271:-1 272:-0.81982 273:-0.459455 274:-1 275:-1 276:-1 277:-1 278:-1 279:-1 280:-1 281:-1 282:-1 283:-1 284:-0.801802 285:0.477491 286:-0.867868 287:-0.81982 288:-1 289:-1 290:-1 291:-0.218003 292:-1 293:-1 294:-1 295:-1 296:-1 297:-1 298:-0.207216 299:-1 300:-1 301:-1 302:-1 303:-1 304:-1 305:-1 306:-1 307:-1 308:-1 309:-0.81982 310:-1 311:-1 312:-1 313:-0.837838 314:-1 315:-1 316:-1 317:-1 318:-1 319:-1 320:-0.657657 321:-1 322:-1 323:-0.615616 324:-0.567568 325:-0.927928 326:-1 327:-1 328:-1 329:-1 330:-0.81982 331:-1 332:-1 333:-1 334:-1 335:-1 336:-1 337:-1 338:-1 339:-1 340:-1 341:-1 342:-1 343:-1 344:-1 345:-1 346:-1 
2 2 1.036335425757317 0.3763303728427432 1.792241440971725 1.744853420590756 2 2 2 2 0:-0.517448 1:-1 2:-0.933332 3:-1 4:-1 5:-1 6:-1 7:-0.649518 8:-1 9:-1 10:-1 11:-1 12:-0.954761 13:-1 14:-1 15:-1 16:-1 17:-1 18:-0.847616 19:-0.723806 20:-0.876188 21:-0.51428 22:-0.850791 23:-1 24:-0.767617 25:-0.793647 26:-1 27:-1 28:-1 29:-0.771423 30:-1 31:-1 32:-1 33:-1 34:-1 35:-1 36:-1 37:-0.57142 38:-0.847616 39:-1 40:-1 41:-1 42:-0.85333 43:-0.804756 44:-1 45:-1 46:-1 47:-1 48:-1 49:-1 50:-1 51:-1 52:-0.885712 53:-1 54:-1 55:-0.923808 56:-1 57:-1 58:-1 59:-1 60:-0.790474 61:-0.852378 62:-1 63:-1 64:-1 65:-1 66:-0.859362 67:-1 68:-0.828569 69:-0.714277 70:-0.799996 71:-0.80952 72:-1 73:-0.257127 74:-0.819045 75:-1 76:-1 77:-1 78:-0.961904 79:-1 80:-0.841902 81:-1 82:-1 83:-1 84:-0.73333 85:-1 86:-0.53332 87:-1 88:-1 89:-0.942856 90:-0.885712 91:-1 92:-1 93:-0.80952 94:-0.799996 95:-1 96:-1 97:-0.87891 98:-0.876188 99:-0.885712 100:-1 101:-1 102:-1 103:-1 104:-1 105:-0.752376 106:-0.933332 107:-1 108:-1 109:-1 110:-1 111:-0.842854 112:-1 113:-0.851278 114:-1 115:-1 116:-1 117:-1 118:-1 119:-1 120:-0.728566 121:-0.876188 122:-1 123:-1 124:-1 125:-0.876188 126:-1 127:-1 128:-1 129:-1 130:-1 131:-0.938094 132:-0.866665 133:-1 134:-0.780948 135:-1 136:-1 137:-1 138:-0.819045 139:-0.90476 140:-0.796821 141:-0.849997 142:-0.733326 143:-1 144:-1 145:-0.80317 146:-1 147:-1 148:-1 149:-1 150:-1 151:-0.847616 152:-1 153:-1 154:-1 155:-1 156:-1 157:-1 158:-1 159:-0.771426 160:-1 161:-1 162:-1 163:-1 164:-0.92857 165:-0.906492 166:-0.933332 167:-1 168:-1 169:-1 170:-1 171:-0.933332 172:-1 173:-0.942856 174:-0.742852 175:-1 176:-1 177:-1 178:-0.80952 179:-1 180:-0.695232 181:-0.90476 182:-1 183:-0.80952 184:-1 185:-1 186:-0.785709 187:-1 188:-1 189:-0.828569 190:-0.866665 191:-1 192:-1 193:-1 194:-1 195:-1 196:-0.857141 197:-1 198:-1 199:-1 200:-1 201:-0.942856 202:-1 203:-1 204:-0.828569 205:-0.811901 206:-1 207:-1 208:-1 209:-1 210:-1 211:-1 212:-0.76825 213:-1 214:-0.71428 215:-1 216:-0.841267 217:-0.958729 218:-1 219:-0.838093 220:-0.90476 221:-1 222:-1 223:-0.843736 224:-0.790472 225:-0.782855 226:-1 227:-1 228:-1 229:-0.714277 230:-0.821424 231:-1 232:-1 233:-1 234:-1 235:-1 236:-0.714279 237:-1 238:-1 239:-1 240:-1 241:-0.885712 242:-0.723806 243:-1 244:-1 245:-0.638091 246:-1 247:-0.638091 248:-1 249:-1 250:-1 251:-0.642849 252:-0.847616 253:-0.733326 254:-1 255:-1 256:-0.888886 257:-0.780947 258:-1 259:-1 260:-0.828569 261:-0.590465 262:-0.555545 263:-0.299036 264:-0.558087 265:-1 266:-0.638087 267:-0.828568 268:-0.90476 269:-1 270:-1 271:-1 272:-1 273:-1 274:-1 275:-1 276:-1 277:-0.85714 278:-1 279:-1 280:-1 281:-1 282:-1 283:-0.64285 284:-0.895236 285:-1 286:-0.930158 287:-1 288:-0.876188 289:-0.80952 290:-0.857141 291:-1 292:-0.871426 293:-0.733326 294:-1 295:-1 296:-1 297:-1 298:-1 299:-1 300:-1 301:-0.771424 302:-1 303:-1 304:-1 305:-1 306:-0.657139 307:-0.751189 308:-1 309:-1 310:-0.695232 311:-1 312:-1 313:-0.914284 314:-0.73333 315:-1 316:-1 317:-1 318:-0.879362 319:-0.695232 320:-1 321:-1 322:-0.80952 323:-1 324:-1 325:-1 326:-1 327:-1 328:-0.866665 329:-1 330:-1 331:-1 332:-1 333:-1 334:-1 335:-1 336:-1 337:-1 338:-1 339:-0.746027 340:-1 341:-1 342:-1 343:-1 344:-0.695232 345:-0.542848 346:-1 
2 2 1.051799508366705 2 1.479300552880274 2 2 2 2 2 0:-0.908546 1:-0.83755 2:-1 3:-0.9639 4:-1 5:-1 6:-0.797841 7:-1 8:-0.7112 9:-1 10:-1 11:-0.862821 12:-1 13:-1 14:-1 15:-1 16:-1 17:-0.350178 18:-0.191328 19:-1 20:-1 21:-0.877261 22:-0.773774 23:-1 24:-0.471501 25:-1 26:-0.588463 27:-1 28:-0.738477 29:-0.826719 30:-1 31:-1 32:-1 33:-1 34:-1 35:-1 36:-1 37:-0.93502 38:-1 39:-1 40:-1 41:-0.9639 42:-0.888812 43:-1 44:-1 45:-0.80506 46:-1 47:-1 48:-1 49:-0.853538 50:-1 51:-1 52:-1 53:-1 54:-1 55:-0.76896 56:-1 57:-0.797838 58:-0.9278 59:-1 60:-1 61:-0.77618 62:-1 63:-1 64:-1 65:-0.696746 66:-0.893385 67:-0.889895 68:-1 69:-1 70:-1 71:-0.7112 72:-1 73:-1 74:-0.588463 75:-1 76:-1 77:-0.88448 78:-1 79:-1 80:-1 81:-1 82:-1 83:-1 84:-1 85:-1 86:-1 87:-1 88:-0.595677 89:-1 90:-1 91:-0.350194 92:-0.898921 93:-1 94:-1 95:-1 96:-0.57763 97:-0.632813 98:-0.81228 99:-1 100:-0.393515 101:-0.93141 102:-1 103:-0.826721 104:-1 105:-0.81228 106:-1 107:-0.88448 108:-0.821906 109:-1 110:-0.90975 111:-0.96029 112:-1 113:-1 114:-0.864624 115:-0.837548 116:-1 117:-0.77618 118:-0.841162 119:-1 120:-0.93141 121:-1 122:-1 123:-0.932613 124:-1 125:-1 126:-0.84838 127:-1 128:-0.87004 129:-1 130:-0.797838 131:-1 132:-1 133:-0.95307 134:-1 135:-1 136:-0.862821 137:-1 138:-0.862821 139:-1 140:-1 141:-0.77257 142:-0.797838 143:-0.571595 144:-1 145:-0.850786 146:-1 147:-1 148:-1 149:-1 150:-1 151:-1 152:-0.8556 153:-1 154:-1 155:-1 156:-1 157:-1 158:-1 159:-0.480164 160:-0.747301 161:-1 162:-1 163:-1 164:-0.8917 165:-0.976371 166:-1 167:-1 168:-1 169:-1 170:-1 171:-0.94946 172:-1 173:-1 174:-1 175:-0.8556 176:-1 177:-1 178:-1 179:-1 180:-0.88448 181:-1 182:-0.7834 183:-0.5668 184:-1 185:-0.862821 186:-1 187:-0.155259 188:-0.555966 189:-1 190:-0.797841 191:-1 192:-1 193:-1 194:-1 195:-1 196:-0.891701 197:-0.797841 198:-0.870041 199:-1 200:-1 201:-0.87004 202:-0.53792 203:-0.610123 204:-0.0902513 205:-0.857405 206:-0.837548 207:-1 208:-1 209:-1 210:-1 211:-1 212:-0.824314 213:-1 214:-0.9278 215:-1 216:-1 217:-1 218:-1 219:-1 220:-1 221:-1 222:-0.754522 223:-1 224:-0.76174 225:-0.506156 226:-0.675102 227:-0.841162 228:-0.797841 229:-1 230:-1 231:-0.51864 232:-1 233:-0.90975 234:-0.8195 235:-0.8556 236:-0.94585 237:-1 238:-1 239:-1 240:-1 241:-0.94224 242:-1 243:-1 244:-1 245:-1 246:-1 247:-0.862821 248:-0.205808 249:-0.790621 250:-0.829129 251:-1 252:-1 253:-0.797838 254:-1 255:-1 256:-1 257:-0.169649 258:-0.891701 259:-1 260:-0.870041 261:-0.896513 262:-1 263:-1 264:-0.748744 265:-1 266:-1 267:-1 268:-0.9278 269:-1 270:-1 271:-0.71842 272:-1 273:-1 274:-1 275:-0.9639 276:-1 277:-1 278:-1 279:-0.740082 280:-1 281:-0.910151 282:-0.830329 283:-0.90975 284:-1 285:-0.851989 286:-0.84116 287:-1 288:-0.90614 289:-1 290:-0.891701 291:-1 292:-0.512623 293:-0.797838 294:-1 295:-0.9639 296:-1 297:-1 298:-0.682323 299:-0.595666 300:-1 301:-1 302:-1 303:-1 304:-0.77257 305:-1 306:-1 307:-1 308:-1 309:-0.78339 310:-1 311:-0.86643 312:-1 313:-0.80506 314:-0.898921 315:-1 316:-1 317:-1 318:-0.908546 319:-0.76896 320:-1 321:-0.539727 322:-1 323:-0.922987 324:-0.94224 325:-1 326:-1 327:-1 328:-1 329:-0.858487 330:-1 331:-1 332:-1 333:-1 334:-0.851474 335:-1 336:-0.371874 337:-1 338:-1 339:-0.922987 340:-0.487355 341:-1 342:-0.86643 343:-1 344:-1 345:-1 346:-1 
1.979793519237685 0 0 0 1.892035990496278 1.18538875431613 0 0 0.1084982938884084 0.3817067401102883 0:-1 1:-0.725613 2:-1 3:-1 4:-1 5:-1 6:-1 7:-1 8:-1 9:-1 10:-0.829257 11:-1 12:-1 13:-0.646318 14:-1 15:-1 16:-1 17:-1 18:-1 19:-1 20:-1 21:-1 22:-1 23:-1 24:-1 25:-1 26:-1 27:-0.804864 28:-1 29:-1 30:-1 31:-1 32:-1 33:-1 34:-0.335363 35:-1 36:-0.80488 37:-1 38:-0.902432 39:-1 40:-1 41:-1 42:-1 43:-0.5 44:-1 45:-1 46:-1 47:-0.419521 48:-1 49:-0.876298 50:-1 51:-1 52:-0.853647 53:-1 54:-1 55:-0.902432 56:-0.914628 57:-1 58:-0.87804 59:-1 60:-0.463425 61:-1 62:-1 63:0.146308 64:-0.39025 65:-0.82927 66:-1 67:-0.628054 68:-0.780474 69:-1 70:-1 71:-0.75608 72:-1 73:-0.048789 74:-1 75:-1 76:-1 77:-0.804864 78:-0.90244 79:-1 80:-1 81:-1 82:-1 83:-0.703231 84:-0.829257 85:-1 86:-1 87:-1 88:-0.658509 89:-1 90:-0.926824 91:-0.634116 92:-1 93:-1 94:-1 95:-0.329227 96:-1 97:-0.844937 98:-0.68293 99:-1 100:-1 101:-1 102:-1 103:-1 104:-0.480482 105:-0.841452 106:-0.914628 107:-1 108:-0.69919 109:-1 110:-1 111:-0.932922 112:-1 113:-1 114:-1 115:-1 116:-1 117:-0.810962 118:-1 119:-1 120:-0.884138 121:-1 122:-0.780474 123:-1 124:-0.853647 125:-0.841452 126:-1 127:-1 128:-1 129:-0.117072 130:-1 131:-1 132:-1 133:-0.920726 134:-1 135:-1 136:-0.536594 137:-1 138:-1 139:-0.87804 140:-1 141:-1 142:-1 143:-1 144:-0.817075 145:-0.747949 146:-0.804864 147:-1 148:-1 149:-1 150:-0.90244 151:-0.804864 152:-0.87804 153:-1 154:-1 155:-1 156:-0.926824 157:-1 158:-1 159:-1 160:-1 161:-1 162:-0.451213 163:-1 164:-0.90853 165:-0.800442 166:-1 167:-1 168:-0.87805 169:-1 170:-1 171:-1 172:-1 173:-1 174:-1 175:-1 176:-0.975608 177:-1 178:-0.87804 179:-1 180:-1 181:-1 182:-1 183:-1 184:-1 185:-1 186:-0.817075 187:-1 188:-0.749979 189:-1 190:-1 191:-1 192:-1 193:-0.902432 194:-1 195:-1 196:-1 197:-0.658542 198:-1 199:-1 200:-1 201:-0.85366 202:-0.804864 203:-1 204:-1 205:-1 206:-1 207:-1 208:-0.451213 209:-1 210:-0.853647 211:-0.71949 212:-1 213:-1 214:-1 215:-1 216:-1 217:-1 218:-1 219:-1 220:-1 221:-1 222:-1 223:-1 224:-1 225:-1 226:-1 227:-0.731691 228:-1 229:-1 230:-1 231:-1 232:-1 233:-1 234:-1 235:-0.75608 236:-1 237:-1 238:-1 239:-1 240:-0.541779 241:-0.853656 242:-1 243:-1 244:-0.87804 245:-0.768278 246:-0.603627 247:-0.536594 248:-1 249:-1 250:-0.711365 251:-1 252:-0.902432 253:-0.658509 254:-1 255:-0.646318 256:-0.715449 257:-0.71949 258:-1 259:-1 260:-0.341457 261:-1 262:-0.857713 263:-0.32682 264:-0.858527 265:-1 266:-0.884138 267:-0.890236 268:-0.7561 269:-0.8506 270:-1 271:-1 272:-1 273:-0.634116 274:-1 275:-1 276:-1 277:-1 278:-1 279:-1 280:-1 281:-1 282:-1 283:-1 284:-1 285:-1 286:-0.910563 287:-0.87804 288:-0.841465 289:-1 290:-1 291:-1 292:-1 293:-0.658509 294:-1 295:-0.93902 296:-1 297:-1 298:-0.731691 299:-1 300:-1 301:-1 302:-1 303:-1 304:-1 305:-1 306:-1 307:-1 308:-1 309:-1 310:-0.804864 311:-1 312:-1 313:-0.890236 314:-1 315:-1 316:-1 317:-1 318:-1 319:-0.60976 320:-0.884138 321:-1 322:-1 323:-1 324:-0.902432 325:-0.70732 326:-1 327:-1 328:-0.829257 329:-1 330:-1 331:-1 332:-1 333:-1 334:-1 335:-1 336:-1 337:-1 338:-1 339:-0.86992 340:-1 341:-1 342:-0.774374 343:-1 344:-0.80488 345:-1 346:-1 
1.915851856654454 2 1.356776539073273 1.589373417179877 2 1.466865929814909 2 1.75414452428173 1.625673450947372 1.546370292977677 0:-1 1:-1 2:-1 3:-1 4:-1 5:-1 6:-1 7:-1 8:-1 9:-1 10:-1 11:-1 12:-0.552939 13:-1 14:-1 15:-1 16:-1 17:-1 18:-1 19:-0.317635 20:-1 21:-1 22:-1 23:-1 24:-1 25:-0.490185 26:-1 27:-1 28:-1 29:-1 30:-1 31:-1 32:-1 33:-0.611755 34:-0.0840237 35:-1 36:-0.81176 37:-0.78823 38:-1 39:-1 40:-1 41:-1 42:-1 43:-1 44:-1 45:-1 46:-1 47:-1 48:-1 49:-1 50:-1 51:-1 52:-1 53:-1 54:-1 55:-0.623536 56:-0.83529 57:-1 58:-1 59:-1 60:-1 61:-1 62:-1 63:-1 64:-0.41175 65:-0.83529 66:-1 67:-1 68:-1 69:-1 70:-1 71:-1 72:-1 73:-0.0823291 74:-0.552934 75:-1 76:-1 77:-1 78:-1 79:-1 80:-1 81:-1 82:-1 83:-1 84:-1 85:0.317635 86:-1 87:-1 88:-1 89:-1 90:-1 91:-1 92:-0.670582 93:-1 94:-1 95:-1 96:-0.541165 97:-1 98:-1 99:-1 100:-1 101:-1 102:-1 103:-0.435285 104:-1 105:-1 106:-1 107:0.882368 108:-0.419617 109:-0.639205 110:-1 111:-0.870585 112:-1 113:-1 114:-0.55881 115:-1 116:-1 117:-1 118:-1 119:-1 120:-1 121:-1 122:-1 123:-1 124:-1 125:-0.69411 126:-1 127:-0.90588 128:-1 129:-1 130:-1 131:-1 132:-1 133:-1 134:-0.819604 135:-1 136:-1 137:-1 138:-1 139:-1 140:-1 141:-1 142:-1 143:-1 144:-1 145:-1 146:-1 147:-1 148:-1 149:-1 150:-1 151:-1 152:-1 153:-1 154:-1 155:-0.90588 156:-1 157:-1 158:-1 159:-1 160:-1 161:-1 162:-1 163:-1 164:-1 165:-0.845992 166:-1 167:-1 168:-1 169:-0.78823 170:-1 171:-1 172:-1 173:-1 174:-0.364689 175:-1 176:-0.905884 177:-1 178:-1 179:-1 180:-1 181:-1 182:-1 183:-1 184:-1 185:-1 186:-1 187:-1 188:-1 189:-1 190:-1 191:-1 192:-0.341192 193:-0.81176 194:-1 195:-1 196:-0.647052 197:-1 198:-1 199:-1 200:-1 201:-1 202:-0.62352 203:-1 204:-1 205:-1 206:-1 207:-1 208:-1 209:-1 210:-1 211:-1 212:-1 213:-1 214:-1 215:-1 216:-1 217:-1 218:-1 219:-1 220:-1 221:-1 222:-1 223:-1 224:-0.74117 225:-1 226:-1 227:-1 228:-1 229:-1 230:-1 231:-1 232:-1 233:-1 234:-1 235:-1 236:-1 237:-0.0823551 238:-1 239:-0.435285 240:-1 241:-1 242:-0.317635 243:-1 244:-0.7647 245:-1 246:-1 247:-0.552934 248:-1 249:-1 250:-0.44313 251:-0.823525 252:-1 253:-1 254:-0.670582 255:-1 256:-1 257:-1 258:-1 259:-1 260:-0.576463 261:-1 262:-1 263:-1 264:-0.727052 265:-1 266:-1 267:-1 268:-1 269:-1 270:-1 271:-1 272:-0.52942 273:-1 274:-1 275:-1 276:-1 277:-1 278:-1 279:-1 280:-1 281:-1 282:-1 283:-1 284:-1 285:-0.0353014 286:-0.827447 287:-1 288:-1 289:-0.5294 290:-1 291:0.021223 292:-1 293:-1 294:-1 295:-1 296:-1 297:-1 298:-1 299:-1 300:-0.69411 301:-1 302:-1 303:-1 304:-1 305:-1 306:-1 307:-1 308:-1 309:-1 310:-1 311:-1 312:-1 313:-0.78823 314:-1 315:-1 316:-1 317:-1 318:-1 319:-0.62352 320:-0.776465 321:-1 322:-1 323:-0.498048 324:-1 325:-0.90588 326:-1 327:-1 328:-1 329:-1 330:-1 331:-0.670582 332:-0.0353014 333:-1 334:-1 335:4.25007e-05 336:0.023533 337:-1 338:-0.7647 339:-1 340:-1 341:-1 342:-1 343:-0.670582 344:-1 345:-1 346:-1 
2 0.4012962038270009 0 1.469457025340565 2 2 2 2 2 2 0:-0.868063 1:-0.88282 2:-1 3:-0.89583 4:-1 5:-1 6:-0.854177 7:-1 8:-0.79168 9:-1 10:-0.416679 11:-1 12:-0.950524 13:-1 14:-0.697938 15:-0.7396 16:-1 17:-0.88282 18:-0.833344 19:-1 20:-1 21:-0.822929 22:-0.836817 23:-0.639868 24:-1 25:-1 26:-1 27:-0.666656 28:-1 29:-1 30:-1 31:-1 32:-1 33:-1 34:-0.918904 35:-0.729187 36:-1 37:-1 38:-0.666672 39:-1 40:-1 41:-0.94792 42:-1 43:-1 44:-1 45:-1 46:-1 47:-1 48:-1 49:-0.894352 50:-1 51:-1 52:-1 53:-1 54:-1 55:-1 56:-1 57:-0.70835 58:-1 59:-0.7396 60:-1 61:-0.838552 62:-1 63:-1 64:-1 65:-1 66:-1 67:-1 68:-1 69:-1 70:-0.78125 71:-1 72:-0.94792 73:-1 74:-0.802098 75:-0.8264 76:-1 77:-1 78:-0.916664 79:-1 80:-1 81:-0.79168 82:-0.833344 83:-1 84:-1 85:-1 86:-1 87:-1 88:-0.70835 89:-0.874996 90:-0.937504 91:-0.687517 92:-1 93:-1 94:-1 95:-0.427126 96:-0.796888 97:-1 98:-0.59375 99:-0.875 100:-1 101:-0.901048 102:-1 103:-1 104:-1 105:-1 106:-1 107:-0.833344 108:-1 109:-1 110:-1 111:-0.885413 112:-1 113:-1 114:-0.60936 115:-0.765638 116:-1 117:-1 118:-0.77085 119:-1 120:-0.901048 121:-1 122:-0.812513 123:-0.902784 124:-1 125:-1 126:-1 127:-0.916664 128:-0.906256 129:-1 130:-1 131:-1 132:-1 133:-1 134:-0.760417 135:-1 136:-1 137:-1 138:-1 139:-0.89584 140:-1 141:-1 142:-0.70835 143:-0.896998 144:-0.92188 145:-1 146:-1 147:-1 148:-0.666656 149:-1 150:-0.875 151:-0.5 152:-1 153:-1 154:-0.548598 155:-1 156:-0.937504 157:-1 158:-1 159:-1 160:-1 161:-1 162:-1 163:-1 164:-0.92188 165:-0.863639 166:-0.927088 167:-1 168:-0.89583 169:-0.906256 170:-1 171:-1 172:-1 173:-0.937504 174:-0.156249 175:-0.79168 176:-0.979168 177:-0.604157 178:-1 179:-1 180:-1 181:-0.79166 182:-1 183:-1 184:-0.701377 185:-1 186:-0.92188 187:-0.593776 188:-1 189:-1 190:-1 191:-1 192:-1 193:-1 194:-1 195:-1 196:-1 197:-1 198:-0.812513 199:-1 200:-0.864592 201:-0.8125 202:-0.833344 203:-1 204:-1 205:-1 206:-1 207:-1 208:-1 209:-0.94792 210:-1 211:-0.520815 212:-1 213:-1 214:-1 215:-1 216:-1 217:-1 218:-0.677103 219:-0.645825 220:-1 221:-0.375052 222:-1 223:-1 224:-0.885424 225:-1 226:-1 227:-0.77085 228:-1 229:-1 230:-1 231:-0.86112 232:-1 233:-1 234:-1 235:-1 236:-1 237:-0.729158 238:-0.729187 239:-0.750018 240:-1 241:-0.875 242:-0.697938 243:-1 244:-0.6875 245:-0.406255 246:-0.661477 247:-0.802098 248:-1 249:-0.697938 250:-1 251:-0.92188 252:-0.916672 253:-0.70835 254:-0.854177 255:-1 256:-1 257:-1 258:-0.843761 259:-0.927088 260:-1 261:-0.850703 262:-0.87848 263:-0.616656 264:-1 265:-1 266:-1 267:-0.812494 268:-1 269:-1 270:-0.927088 271:-1 272:-1 273:-1 274:-0.645859 275:-1 276:-1 277:-0.94792 278:-1 279:-1 280:-1 281:-1 282:-0.755223 283:-1 284:-0.885424 285:-1 286:-0.847218 287:-0.79166 288:-0.932296 289:-0.79168 290:-0.843761 291:-1 292:-1 293:-1 294:-0.864592 295:-0.94792 296:-1 297:-0.875008 298:-0.77085 299:-0.927088 300:-0.864592 301:-1 302:-0.94792 303:-1 304:-1 305:-1 306:-0.625027 307:-1 308:-1 309:-1 310:-0.666656 311:-1 312:-1 313:-1 314:-1 315:-1 316:-1 317:-1 318:-1 319:-1 320:-0.703125 321:-1 322:-0.89584 323:-1 324:-1 325:-0.875 326:-1 327:-1 328:-1 329:-0.795845 330:-0.79166 331:-1 332:-0.78647 333:-1 334:-1 335:-1 336:-1 337:-1 338:-1 339:-1 340:-0.852094 341:-0.70835 342:-1 343:-1 344:-0.833328 345:-1 346:-1 
2 0.01267634102250579 0 2 0 0 1.673772735127417 2 2 1.285685631620008 0:-1 1:-0.578126 2:-0.9125 3:-1 4:-1 5:-1 6:-1 7:-1 8:-1 9:-1 10:-0.650002 11:-0.762502 12:-0.88125 13:-0.637503 14:-0.637503 15:-0.6875 16:-1 17:-1 18:-1 19:-1 20:-0.8375 21:-0.787502 22:-1 23:-1 24:-1 25:-0.458335 26:-1 27:-1 28:-1 29:-1 30:-1 31:-1 32:-1 33:-1 34:-0.902678 35:-1 36:-0.9 37:-0.6625 38:-1 39:-1 40:-0.75625 41:-1 42:-0.8075 43:-0.743747 44:-0.602502 45:-1 46:-1 47:-1 48:-1 49:-0.74643 50:-1 51:-1 52:-1 53:-1 54:-0.812501 55:-1 56:-1 57:-1 58:-0.875 59:-1 60:-0.725003 61:-1 62:-1 63:-1 64:-1 65:-1 66:-1 67:-1 68:-0.775002 69:-1 70:-0.825 71:-1 72:-0.9375 73:-1 74:-1 75:-1 76:-1 77:-1 78:-1 79:-1 80:-0.7925 81:-0.5 82:-1 83:-1 84:-1 85:-1 86:-1 87:-1 88:-1 89:-1 90:-0.625001 91:-1 92:-1 93:-1 94:-1 95:-1 96:-0.75625 97:-0.682144 98:0.137501 99:-0.95 100:-1 101:-1 102:-1 103:-1 104:-0.822501 105:-1 106:-0.9125 107:-0.6 108:-1 109:-1 110:-1 111:-1 112:-1 113:-1 114:-0.765624 115:-1 116:-1 117:-1 118:-1 119:-1 120:-0.524999 121:-1 122:-1 123:-1 124:-1 125:-1 126:-1 127:-0.9 128:-1 129:-1 130:-1 131:-0.959375 132:-1 133:-1 134:-0.520834 135:-1 136:-1 137:-1 138:-1 139:-1 140:-1 141:-1 142:-0.649997 143:-1 144:-0.8125 145:-1 146:-1 147:-1 148:-1 149:-1 150:-0.95 151:-1 152:-1 153:-1 154:-1 155:-1 156:-1 157:-1 158:-1 159:-1 160:-0.781251 161:-1 162:-0.625002 163:-1 164:-1 165:-0.918182 166:-1 167:-1 168:-0.9375 169:-1 170:-1 171:-1 172:-1 173:-1 174:-1 175:-1 176:-0.975 177:-0.762502 178:-1 179:-1 180:-0.8 181:-0.75 182:-1 183:-0.75 184:-0.641664 185:-0.762502 186:-1 187:-1 188:-1 189:-1 190:-1 191:-1 192:-1 193:-1 194:-1 195:-1 196:-1 197:-0.125005 198:-0.775002 199:-1 200:-1 201:-0.700001 202:-1 203:-1 204:-0.775002 205:-0.506251 206:-1 207:-1 208:-1 209:-1 210:-1 211:-1 212:-1 213:-1 214:-1 215:-1 216:-0.791667 217:-1 218:-1 219:-1 220:-1 221:-1 222:-1 223:-1 224:-0.725 225:-1 226:-1 227:-0.725003 228:-0.825001 229:-1 230:-1 231:-1 232:-0.75 233:-1 234:-1 235:-1 236:-0.90625 237:-1 238:-1 239:-0.700002 240:-1 241:-1 242:-1 243:-1 244:-0.875 245:-1 246:0.218759 247:-0.762502 248:-0.656253 249:-1 250:-1 251:-0.90625 252:-1 253:-0.649997 254:-1 255:-1 256:-0.854166 257:-1 258:-1 259:-1 260:-1 261:-0.820832 262:-1 263:-0.770001 264:-0.855 265:-1 266:-1 267:-0.8875 268:-0.875 269:-1 270:-1 271:-1 272:-0.875 273:-1 274:-1 275:-0.875 276:-1 277:-1 278:-1 279:-1 280:-1 281:-1 282:-1 283:-1 284:-0.8625 285:-1 286:-0.816667 287:-0.875 288:-0.675 289:-1 290:-1 291:-1 292:-1 293:-1 294:-1 295:-0.9375 296:-1 297:-1 298:-0.725003 299:-1 300:-0.675 301:-0.9 302:-1 303:-1 304:-1 305:-1 306:-1 307:-1 308:-1 309:-0.875 310:-1 311:-0.76875 312:-0.75 313:-1 314:-1 315:-1 316:-1 317:-1 318:-1 319:-1 320:-1 321:-1 322:-0.75 323:-0.866667 324:-0.9 325:-0.95 326:-1 327:-1 328:-1 329:-0.754998 330:-0.875 331:-1 332:-1 333:-0.76875 334:-1 335:-1 336:-1 337:-1 338:-0.875 339:-0.933333 340:-0.822501 341:-1 342:-1 343:-0.825001 344:-0.8 345:-1 346:-1 
1.954910499955463 0 0 1.437486770737422 0 0 0.3514033394512412 0 0 0 0:-1 1:-0.753648 2:-0.9489 3:-1 4:-1 5:-0.9124 6:-0.897801 7:-0.86568 8:-1 9:-1 10:-1 11:-1 12:-0.861309 13:-1 14:-0.788301 15:-1 16:-0.897801 17:-0.917875 18:-1 19:-0.153264 20:-1 21:-1 22:-0.656932 23:-1 24:-1 25:-0.841834 26:-0.861301 27:-1 28:-0.603405 29:-0.9124 30:-1 31:-1 32:-1 33:-1 34:-0.886344 35:-1 36:-1 37:-0.9343 38:-0.9416 39:-1 40:-0.715339 41:-1 42:-0.88758 43:-0.401435 44:-0.92262 45:-0.8029 46:-1 47:-1 48:-1 49:-0.851935 50:-1 51:-1 52:-1 53:-1 54:-0.781031 55:-0.883216 56:-1 57:-1 58:-1 59:-0.8175 60:-0.678847 61:-0.66058 62:-1 63:-1 64:-1 65:-0.9489 66:-0.676639 67:-1 68:-0.737238 69:-1 70:-1 71:-1 72:-1 73:-1 74:-1 75:-1 76:-0.875901 77:-1 78:-1 79:-1 80:-0.394167 81:-0.854 82:-0.766432 83:-0.822367 84:-0.897801 85:-0.795598 86:-1 87:-1 88:-0.795598 89:-0.912412 90:-0.868612 91:-1 92:-1 93:-0.85402 94:-1 95:-1 96:-0.430638 97:-0.721584 98:-0.9051 99:-0.9708 100:-1 101:-0.93065 102:-1 103:-0.824801 104:-0.79271 105:-0.9051 106:-1 107:-1 108:-1 109:-0.776163 110:-1 111:-1 112:-1 113:-0.772045 114:-0.863124 115:-1 116:-1 117:-0.88685 118:-1 119:-0.7737 120:-0.93065 121:-0.95255 122:-0.737238 123:-1 124:-0.649623 125:-0.9051 126:-1 127:-1 128:-0.9343 129:-0.471546 130:-1 131:-0.976275 132:-1 133:-1 134:-1 135:-0.829666 136:-1 137:-1 138:-1 139:-0.85402 140:-1 141:-1 142:-1 143:-0.927811 144:-0.890515 145:-0.849133 146:-1 147:-1 148:-0.8832 149:-0.824801 150:-0.941608 151:-1 152:-0.70802 153:-1 154:-1 155:-1 156:-0.9562 157:-1 158:-0.693442 159:-0.824801 160:-0.87225 161:-1 162:-0.890501 163:-1 164:-0.94525 165:-1 166:-0.9489 167:-1 168:-1 169:-0.671536 170:-1 171:-0.897814 172:-1 173:-1 174:-1 175:-0.854 176:-1 177:-0.861301 178:-0.927 179:-1 180:-0.416064 181:-1 182:-0.85402 183:-1 184:-0.895366 185:-0.861301 186:-0.94525 187:-1 188:-0.850349 189:-1 190:-1 191:-1 192:-0.795629 193:-1 194:-0.9051 195:-0.883216 196:-1 197:-0.795629 198:-1 199:-0.598559 200:-0.9051 201:-0.824812 202:-0.766432 203:-1 204:-1 205:-0.855825 206:-1 207:-1 208:-0.890501 209:-1 210:-1 211:-1 212:-0.644783 213:-1 214:-0.78102 215:-1 216:-1 217:-0.968367 218:-1 219:-1 220:-1 221:-1 222:-0.751802 223:-0.880226 224:-0.759122 225:-1 226:-1 227:-1 228:-1 229:-1 230:-0.726286 231:-1 232:-0.70804 233:-1 234:-0.8175 235:-1 236:-1 237:-0.9051 238:-0.810202 239:-0.824801 240:-1 241:-1 242:-0.364962 243:-1 244:-1 245:-0.861301 246:-0.28831 247:-0.861301 248:-1 249:-1 250:-1 251:-0.890515 252:-0.824816 253:-0.386851 254:-1 255:-1 256:-0.914833 257:-1 258:-0.890501 259:-0.9489 260:-1 261:-1 262:-1 263:-0.731398 264:-1 265:-0.682457 266:-1 267:-1 268:-0.78102 269:-0.910575 270:-1 271:-1 272:-0.927 273:-0.780998 274:-1 275:-1 276:-1 277:-1 278:-1 279:-0.868601 280:-1 281:-0.909155 282:-1 283:-1 284:-0.598544 285:-1 286:-1 287:-1 288:-0.95255 289:-1 290:-0.890501 291:-1 292:-0.90145 293:-0.795598 294:-0.9051 295:-1 296:-1 297:-1 298:-0.839402 299:-1 300:-0.9051 301:-0.883216 302:-1 303:-1 304:-1 305:-0.835748 306:-1 307:-0.80929 308:-1 309:-0.92701 310:-0.8832 311:-1 312:-0.854 313:-0.868618 314:-1 315:-0.821149 316:-1 317:-1 318:-0.722624 319:-1 320:-0.791969 321:-1 322:-0.85402 323:-0.922133 324:-1 325:-1 326:-1 327:-1 328:-1 329:-0.713877 330:-0.927 331:-1 332:-0.850349 333:-1 334:-0.774763 335:-0.689745 336:-0.682457 337:-0.824801 338:-0.78102 339:-1 340:-0.896341 341:-1 342:-1 343:-0.897801 344:-0.9416 345:-0.766432 346:-0.744496 
0 0.04594640340749241 0 0 1.521629812511671 0 0 0 0 0 0:-1 1:-0.852468 2:-0.908202 3:-1 4:-1 5:-1 6:-1 7:-1 8:-1 9:-0.895072 10:-1 11:-1 12:-0.937708 13:-1 14:-0.809819 15:-1 16:-0.908189 17:-1 18:-0.58032 19:-0.809819 20:-1 21:-1 22:-0.486354 23:-1 24:-1 25:-1 26:-1 27:-1 28:-1 29:-1 30:-1 31:-1 32:-0.757354 33:-1 34:-0.285238 35:-1 36:-0.947536 37:-0.76393 38:-1 39:-1 40:-1 41:-1 42:-0.293108 43:-1 44:-0.791478 45:-1 46:-0.632805 47:-0.765904 48:-1 49:-1 50:-0.758666 51:-0.918025 52:-0.842631 53:-1 54:-0.704921 55:-0.947536 56:-0.954094 57:-1 58:-0.86886 59:-0.67215 60:-1 61:-0.491816 62:-1 63:-0.383654 64:-0.67215 65:-1 66:-0.90316 67:-0.899991 68:-1 69:-1 70:-1 71:-1 72:-0.93443 73:-0.744238 74:-0.750836 75:-1 76:-0.777064 77:-0.790176 78:-1 79:-0.839328 80:-0.673445 81:-1 82:-1 83:-1 84:-1 85:-1 86:-1 87:-1 88:-1 89:-1 90:-1 91:-0.803258 92:-0.724594 93:-0.80328 94:-0.862282 95:-0.639314 96:-0.872119 97:-0.91662 98:-1 99:-1 100:-1 101:-1 102:-1 103:-1 104:-1 105:-1 106:-1 107:-0.895072 108:-0.838261 109:-1 110:-0.426225 111:-0.963931 112:-1 113:-0.692812 114:-0.877037 115:-1 116:-0.83605 117:-1 118:-1 119:-1 120:-1 121:-0.914759 122:-0.881957 123:-0.938792 124:-1 125:-0.829518 126:-1 127:-0.973768 128:-0.940978 129:-1 130:-1 131:-1 132:-0.816405 133:-1 134:-1 135:-1 136:-1 137:-1 138:-0.626235 139:-0.93442 140:-0.860096 141:-0.793454 142:-1 143:-1 144:-1 145:-0.457912 146:-1 147:-0.944257 148:-1 149:-1 150:-1 151:-1 152:-0.93442 153:-0.796702 154:-1 155:-0.973768 156:-0.960652 157:-1 158:-0.862282 159:-1 160:-1 161:-1 162:-0.704921 163:-0.895072 164:-0.803275 165:-0.978537 166:-1 167:-0.855746 168:-1 169:-0.645904 170:-1 171:-0.908202 172:-0.18035 173:-0.960652 174:-1 175:-0.73772 176:-0.973772 177:-0.875399 178:-0.93442 179:-1 180:-1 181:-1 182:-0.93442 183:-0.86884 184:-1 185:-1 186:-0.950815 187:-0.744238 188:-1 189:-0.881957 190:-1 191:-1 192:-0.908189 193:-0.947536 194:-1 195:-0.895088 196:-0.90163 197:-0.908189 198:-0.527864 199:-0.819657 200:-1 201:-0.921316 202:-0.790176 203:-1 204:-0.881957 205:-1 206:-1 207:-1 208:-0.704921 209:-1 210:-0.921304 211:-1 212:-1 213:-0.645907 214:-0.86886 215:-1 216:-1 217:-0.971582 218:-0.796702 219:-1 220:-0.93442 221:-0.606528 222:-1 223:-0.8924 224:-1 225:-1 226:-1 227:-0.855725 228:-1 229:-1 230:-0.754111 231:-1 232:-0.60656 233:-0.836075 234:-0.5082 235:-1 236:-1 237:-1 238:-0.829494 239:-1 240:-0.260896 241:-0.921312 242:-0.809819 243:-1 244:-1 245:-1 246:-0.786863 247:-1 248:-1 249:-0.809819 250:-0.534435 251:-1 252:-1 253:-0.816375 254:-0.908189 255:-0.619697 256:-0.92349 257:-0.849165 258:-1 259:-1 260:-0.527864 261:-1 262:-0.770493 263:-0.758703 264:-1 265:-0.429553 266:-1 267:-1 268:-1 269:-1 270:-0.954094 271:-1 272:-1 273:-1 274:-1 275:-0.86885 276:-0.914746 277:-1 278:-0.885235 279:-1 280:-0.954094 281:-1 282:-0.845886 283:-0.918025 284:-1 285:-0.73116 286:-0.903831 287:-1 288:-0.957373 289:-0.86884 290:-0.90163 291:-0.715377 292:-1 293:-1 294:-1 295:-1 296:-1 297:-1 298:-1 299:-1 300:-0.914746 301:-0.947536 302:-1 303:-0.879333 304:-1 305:-1 306:-1 307:-1 308:-1 309:-0.93443 310:-0.895072 311:-1 312:-1 313:-0.940978 314:-1 315:-1 316:-1 317:-1 318:-0.833889 319:-1 320:-1 321:-0.860643 322:-0.93442 323:-0.860117 324:-0.842624 325:-1 326:-0.855725 327:-1 328:-1 329:-1 330:-1 331:-0.816405 332:-1 333:-0.878677 334:-0.527864 335:-0.72128 336:-0.714733 337:-0.842609 338:-0.93442 339:-1 340:-0.906877 341:-1 342:-1 343:-1 344:-1 345:-0.790176 346:-0.770467 
2 0 0 0 1.937614323003838 0 0 0 0 0 0:-1 1:-0.894363 2:-1 3:-0.97653 4:-1 5:-0.774639 6:-0.934284 7:-1 8:-1 9:-0.774656 10:-0.868541 11:-0.464774 12:-0.910795 13:-0.863875 14:-1 15:-1 16:-0.934284 17:-0.947193 18:-0.774656 19:-0.863875 20:-0.938978 21:-1 22:-0.926461 23:-0.918861 24:-0.885467 25:-0.898297 26:-1 27:-0.84976 28:-0.829938 29:-0.943672 30:-0.924896 31:-0.881086 32:-1 33:-1 34:-0.926892 35:-1 36:-0.84976 37:-0.83098 38:-0.962448 39:-0.76525 40:-1 41:-1 42:-0.855394 43:-1 44:-1 45:-0.74647 46:-1 47:-0.776519 48:-1 49:-1 50:-0.48171 51:-1 52:-0.943672 53:-1 54:-0.92959 55:-0.92488 56:-1 57:-1 58:-0.9061 59:-0.5305 60:-0.793422 61:-0.927243 62:-1 63:-0.338065 64:-0.88265 65:-1 66:-1 67:-0.928417 68:-1 69:-0.718297 70:-0.967142 71:-1 72:-0.97653 73:-1 74:-0.643183 75:-1 76:-1 77:-0.84976 78:-1 79:-0.309829 80:-0.844126 81:-1 82:-0.84976 83:-1 84:-0.934284 85:-0.737078 86:-1 87:-0.92959 88:-1 89:-0.971836 90:-0.94366 91:-1 92:-0.934284 93:-1 94:-0.507046 95:-1 96:-1 97:-0.940319 98:-0.87793 99:-1 100:-1 101:-0.776997 102:-1 103:-1 104:-0.933346 105:-0.87793 106:-0.93427 107:-1 108:-0.942107 109:-0.928025 110:-0.941325 111:-1 112:-0.661987 113:-0.926701 114:-0.647873 115:-1 116:-1 117:-0.927243 118:-1 119:-1 120:-0.910795 121:-0.969489 122:-1 123:-1 124:-0.88732 125:-1 126:-1 127:-0.981224 128:-0.957754 129:-0.830075 130:-1 131:-0.984744 132:-0.474191 133:-0.908454 134:-1 135:-0.890473 136:-0.910815 137:-0.835682 138:-0.910815 139:-0.95306 140:-1 141:-1 142:-1 143:-1 144:-1 145:-1 146:-0.924896 147:-0.800471 148:-0.924896 149:-1 150:-0.981224 151:-0.624416 152:-0.95306 153:-0.272305 154:-0.796551 155:-1 156:-0.94366 157:-0.887345 158:-0.80281 159:-1 160:-1 161:-0.88265 162:-0.718301 163:-0.924896 164:-0.964795 165:-0.984638 166:-1 167:-0.948366 168:-0.95305 169:-0.91549 170:-0.8122 171:-0.93427 172:-0.76525 173:-0.971836 174:-1 175:-1 176:-1 177:-0.821591 178:-1 179:-0.88419 180:-0.924896 181:-0.67136 182:-0.85916 183:-0.90612 184:-0.865409 185:-0.910815 186:-0.964795 187:-0.816934 188:-1 189:-1 190:-1 191:-1 192:-0.934284 193:-0.887328 194:-0.63379 195:-1 196:-1 197:-0.934284 198:-1 199:-1 200:-0.87793 201:-0.88732 202:-1 203:-0.915509 204:-0.915509 205:-0.907294 206:-1 207:-1 208:-0.92959 209:-0.97653 210:-0.88732 211:-1 212:-0.314532 213:-1 214:-0.9061 215:-0.684519 216:-0.921767 217:-0.857589 218:-0.708909 219:-1 220:-1 221:-1 222:-1 223:-0.768918 224:-0.89671 225:-1 226:-0.92959 227:-1 228:-0.934284 229:-1 230:-0.823936 231:-1 232:-0.90612 233:-0.882625 234:-1 235:-0.90612 236:-0.788724 237:-0.938978 238:-1 239:-1 240:-0.82364 241:-1 242:-1 243:-1 244:-0.95306 245:-0.821591 246:-0.542267 247:-0.910815 248:-1 249:-0.727692 250:-0.88891 251:-0.823945 252:-1 253:-1 254:-0.737082 255:-1 256:-0.945236 257:-1 258:-1 259:-1 260:-0.915509 261:-0.865409 262:-0.89045 263:-0.913631 264:-0.94555 265:-0.795815 266:-1 267:-1 268:-0.9061 269:-0.712445 270:-1 271:-1 272:-1 273:-0.859179 274:-1 275:-0.95305 276:-1 277:-0.95305 278:-1 279:-0.915509 280:-1 281:-0.941586 282:-0.889691 283:-1 284:-0.89671 285:-0.711275 286:-0.93114 287:-0.9061 288:-0.938965 289:-0.90612 290:-1 291:-0.796276 292:-1 293:-0.868567 294:-1 295:-1 296:-1 297:-0.943672 298:-0.793422 299:-1 300:-0.816908 301:-1 302:-1 303:-0.913631 304:-0.852139 305:-1 306:-1 307:-0.754689 308:-1 309:-0.97653 310:-1 311:-0.826285 312:-0.90612 313:-0.873244 314:-1 315:-0.539886 316:-0.832578 317:-1 318:-1 319:-0.924896 320:-0.866202 321:-0.900253 322:-1 323:-0.89984 324:-0.962448 325:-1 326:-0.793422 327:-0.910815 328:-1 329:-0.907997 330:-0.85916 331:-0.868541 332:-0.807503 333:-1 334:-0.806834 335:-1 336:-0.387359 337:-0.774642 338:-0.85916 339:-0.974965 340:-0.933346 341:-0.605645 342:-0.826285 343:-1 344:-0.887328 345:-1 346:-1 
1.842704129765741 2 0.5377949542460209 0 2 0.3568716002560836 1.473960230899557 2 0 0 0:-1 1:-0.85294 2:-1 3:-1 4:-1 5:-1 6:-1 7:-1 8:-1 9:-0.790848 10:-1 11:-1 12:-0.937908 13:-1 14:-1 15:-1 16:-1 17:-1 18:-1 19:-1 20:-1 21:-1 22:-0.590412 23:-1 24:-1 25:-1 26:-1 27:-1 28:-1 29:-1 30:-1 31:-1 32:-1 33:-1 34:-0.79645 35:-0.660132 36:-0.686272 37:-0.647056 38:-1 39:-0.6732 40:-1 41:-1 42:-0.396073 43:-1 44:-0.722875 45:-0.647056 46:-1 47:-1 48:-1 49:-1 50:-1 51:-1 52:-0.686271 53:-1 54:-1 55:-1 56:-0.908496 57:-0.633981 58:-1 59:-0.6732 60:-1 61:-0.392151 62:-1 63:-1 64:-0.3464 65:-0.908496 66:-1 67:-1 68:-1 69:-0.607836 70:-0.908496 71:-1 72:-0.93464 73:-1 74:-1 75:-1 76:-1 77:-1 78:-1 79:-1 80:-0.783005 81:-1 82:-0.790848 83:-0.681916 84:-1 85:-1 86:-1 87:-1 88:-1 89:-1 90:-0.921568 91:-1 92:-0.816993 93:-0.3464 94:-1 95:-1 96:-0.490191 97:-1 98:-1 99:-1 100:-1 101:-1 102:-1 103:-1 104:-1 105:-1 106:-1 107:-1 108:-0.838779 109:-0.799561 110:-1 111:-1 112:-1 113:-0.795874 114:-0.264695 115:-1 116:-0.6732 117:-1 118:-1 119:-1 120:-1 121:-0.915032 122:-0.764706 123:-1 124:-1 125:-1 126:-1 127:-1 128:-0.882352 129:-1 130:-1 131:-1 132:-1 133:-0.915032 134:-1 135:-0.694986 136:-1 137:-1 138:-1 139:-0.86928 140:-1 141:-1 142:-1 143:-1 144:-0.90196 145:-1 146:-1 147:-1 148:-1 149:-1 150:-1 151:-1 152:-1 153:-1 154:-1 155:-1 156:-1 157:-1 158:-1 159:-1 160:-1 161:-1 162:-0.607842 163:-1 164:-0.80392 165:-0.957219 166:-1 167:-1 168:-1 169:-0.882352 170:-0.86928 171:-1 172:-1 173:-0.921568 174:-1 175:-1 176:-0.973856 177:-0.751634 178:-0.73856 179:-1 180:-0.790848 181:-1 182:-1 183:-1 184:-0.812633 185:-1 186:-1 187:-1 188:-1 189:-0.764706 190:-1 191:-1 192:-1 193:-0.686272 194:-1 195:-1 196:-1 197:-1 198:-1 199:-1 200:-0.660128 201:-0.921568 202:-0.581696 203:-1 204:-1 205:-0.741828 206:-1 207:-1 208:-0.607842 209:-0.93464 210:-1 211:-1 212:-0.681916 213:-1 214:-0.21568 215:-1 216:-0.782133 217:-1 218:-1 219:-1 220:-1 221:-1 222:-1 223:-1 224:-0.568624 225:-1 226:-1 227:-0.424838 228:-1 229:-1 230:-1 231:-1 232:-0.73856 233:-0.5098 234:-0.6732 235:-0.73856 236:-0.90196 237:-1 238:-0.660132 239:-1 240:-1 241:-1 242:-1 243:-1 244:-1 245:-0.751634 246:-1 247:-0.751634 248:-1 249:-1 250:-0.690633 251:-1 252:-0.895424 253:-1 254:-1 255:-1 256:-0.847493 257:-1 258:-1 259:-0.908496 260:-0.764706 261:-1 262:-0.847493 263:-1 264:-1 265:-1 266:-1 267:-1 268:-0.86928 269:-1 270:-0.908496 271:-1 272:-0.86928 273:-0.607836 274:-0.555556 275:-0.93464 276:-0.830064 277:-1 278:-1 279:-1 280:-1 281:-1 282:-1 283:-0.8366 284:-0.856208 285:-1 286:-1 287:-1 288:-0.915032 289:-0.73856 290:-1 291:-1 292:-1 293:-1 294:-0.660128 295:-0.86928 296:-1 297:-1 298:-0.712419 299:-1 300:-0.830064 301:-0.895424 302:-1 303:-1 304:-0.588232 305:-1 306:-1 307:-1 308:-1 309:-1 310:-1 311:-1 312:-1 313:-0.882352 314:-1 315:-1 316:-1 317:-1 318:-0.834421 319:-1 320:-1 321:-0.722221 322:-0.86928 323:-0.860565 324:-0.895424 325:-1 326:-1 327:-1 328:-1 329:-1 330:-0.73856 331:-0.816993 332:-1 333:-1 334:-0.73109 335:-1 336:-1 337:-0.686275 338:-1 339:-0.930283 340:-0.814379 341:-1 342:-1 343:-1 344:-1 345:-0.372544 346:-1 
2 0.7287907396552668 0.6131142648027537 0.9527997998945542 1.540958493808331 1.488431138623382 0 2 0 0 0:-1 1:-0.920643 2:-0.925926 3:-0.806 4:-1 5:-0.830679 6:-0.753097 7:-1 8:-1 9:-0.492064 10:-0.950608 11:-0.798944 12:-1 13:-0.795435 14:-0.897689 15:-1 16:-1 17:-1 18:-0.943552 19:-0.795435 20:-0.862434 21:-1 22:-0.889488 23:-1 24:-1 25:-0.847164 26:-0.932969 27:-1 28:-0.680594 29:-0.957664 30:-1 31:-1 32:-0.608466 33:-0.941788 34:-0.697913 35:-1 36:-0.915344 37:-0.904762 38:-1 39:-1 40:-0.793651 41:-0.94709 42:-0.891368 43:-0.855392 44:-1 45:-0.904744 46:-1 47:-1 48:-1 49:-0.964216 50:-0.350997 51:-1 52:-1 53:-1 54:-0.418003 55:-0.717808 56:-1 57:-0.901215 58:-1 59:-0.82365 60:-0.922385 61:-1 62:-1 63:-0.834187 64:-1 65:-0.876548 66:-0.843739 67:-0.838625 68:-1 69:-1 70:-0.925926 71:-1 72:-1 73:-1 74:-0.530856 75:-1 76:-0.880083 77:-1 78:-1 79:-1 80:-0.882904 81:-1 82:-0.887136 83:-0.914152 84:-0.851853 85:-1 86:-1 87:-1 88:-1 89:-1 90:-0.936508 91:-1 92:-0.851853 93:-0.92946 94:-0.851866 95:-1 96:-1 97:-0.596374 98:-0.81657 99:-0.985888 100:-1 101:-0.899471 102:-0.901215 103:-0.830705 104:-1 105:-0.908298 106:-0.975304 107:-1 108:-1 109:-1 110:-1 111:-1 112:-0.238102 113:-0.779666 114:-0.93385 115:-1 116:-0.82365 117:-0.890663 118:-0.922385 119:-1 120:-0.899471 121:-0.931217 122:-0.936497 123:-0.967072 124:-0.873015 125:-0.908298 126:-1 127:-1 128:-0.87301 129:-0.872285 130:-0.703702 131:-1 132:-0.60495 133:-0.977068 134:-0.918871 135:-1 136:-1 137:-1 138:-0.798944 139:-1 140:-1 141:-1 142:-0.901215 143:-0.860468 144:-1 145:-0.781305 146:-0.943552 147:-0.910053 148:-0.943552 149:-1 150:-0.873016 151:-0.943552 152:-0.71782 153:-1 154:-1 155:-0.985888 156:-0.978832 157:-0.830705 158:-1 159:-1 160:-0.876555 161:-1 162:-0.629622 163:-0.887136 164:-0.788364 165:-1 166:-0.851852 167:-0.806004 168:-0.98236 169:-0.87301 170:-0.96472 171:-0.827156 172:-0.4709 173:-1 174:-0.904744 175:-1 176:-1 177:-0.932969 178:-0.89418 179:-1 180:-1 181:-1 182:-0.612 183:-0.92944 184:-0.949432 185:-0.798944 186:-1 187:-0.862408 188:-0.927675 189:-1 190:-1 191:-1 192:-0.950608 193:-0.943568 194:-1 195:-0.971776 196:-1 197:-0.950608 198:-1 199:-1 200:-0.679004 201:-0.91534 202:-1 203:-1 204:-1 205:-0.930322 206:-0.920619 207:-0.927675 208:-0.629622 209:-0.94709 210:-1 211:-0.918856 212:-1 213:-0.936497 214:-0.82364 215:-0.841991 216:-1 217:-1 218:-0.781326 219:-1 220:-0.96472 221:-0.788324 222:-1 223:-0.884262 224:-0.84479 225:-1 226:-1 227:-0.922385 228:-1 229:-1 230:-0.93385 231:-1 232:-0.92944 233:-0.647275 234:-0.9118 235:-0.85892 236:-1 237:-1 238:-1 239:-1 240:-1 241:-1 242:-1 243:-1 244:-0.82364 245:-1 246:-0.770743 247:-0.932969 248:-0.902981 249:-1 250:-0.833057 251:-0.97354 252:-0.943568 253:-1 254:-1 255:-1 256:-1 257:-1 258:-1 259:-0.950622 260:-1 261:-1 262:-0.95884 263:-0.935085 264:-0.672672 265:-0.693158 266:-1 267:-1 268:-0.8589 269:-0.870371 270:-1 271:-0.724894 272:-0.96472 273:-1 274:-0.760166 275:-1 276:-1 277:-0.98236 278:-1 279:-0.746022 280:-0.975304 281:-1 282:-0.917092 283:-0.911825 284:-1 285:-1 286:-0.948271 287:-1 288:-0.931217 289:-0.92944 290:-0.788351 291:-1 292:-0.904771 293:-0.901215 294:-1 295:-1 296:-1 297:-1 298:-1 299:-1 300:-0.862434 301:-0.971776 302:-0.98236 303:-1 304:-1 305:-0.920619 306:-1 307:-0.907832 308:-1 309:-0.4709 310:-1 311:-1 312:-1 313:-0.746038 314:-0.851853 315:-0.913563 316:-0.874166 317:-1 318:-1 319:-0.943552 320:-1 321:-1 322:-1 323:-0.924757 324:-1 325:-1 326:-0.922385 327:-0.798944 328:-0.901245 329:-1 330:-1 331:-0.753097 332:-0.927675 333:-1 334:-1 335:-0.850057 336:-1 337:-0.661363 338:-1 339:-1 340:-0.899834 341:-0.20989 342:-0.412698 343:-0.753097 344:-1 345:-1 346:-0.876518 
2 0 0.3098181554186791 0.4414318846308766 2 1.71486777641415 2 1.188847972368895 1.247144639632554 1.565511962416999 0:-1 1:-0.88462 2:-0.928208 3:-1 4:-1 5:-0.876928 6:-0.712834 7:-1 8:-1 9:-1 10:-1 11:-0.805138 12:-1 13:-1 14:-1 15:-1 16:-1 17:-0.653838 18:-0.835904 19:-1 20:-0.866672 21:-1 22:-0.517938 23:-1 24:-0.749756 25:-1 26:-0.805138 27:-1 28:-1 29:-0.876928 30:-1 31:-1 32:-1 33:-1 34:-1 35:-1 36:-1 37:-0.907696 38:-0.917952 39:-0.7436 40:-1 41:-1 42:-1 43:-0.78975 44:-1 45:-0.723088 46:-1 47:-0.877954 48:-1 49:-1 50:-0.62258 51:-1 52:-1 53:-0.482073 54:-1 55:-0.917952 56:-1 57:-0.71283 58:-0.89744 59:-0.4872 60:-0.548741 61:-0.523064 62:-1 63:-0.517977 64:-1 65:-0.78461 66:-1 67:-1 68:-0.815393 69:-1 70:-0.856416 71:-0.58976 72:-0.94872 73:-1 74:-0.805138 75:-1 76:-1 77:-0.835904 78:-0.87692 79:-0.497452 80:-1 81:-0.58976 82:-0.671808 83:-1 84:-1 85:-0.71283 86:-1 87:-1 88:-0.71283 89:-1 90:-0.81538 91:-1 92:-1 93:-0.89744 94:-0.784624 95:-1 96:-0.800008 97:-0.869603 98:-0.866672 99:-0.958976 100:-1 101:-0.805136 102:-1 103:-0.753858 104:-1 105:-0.733344 106:-0.928208 107:-1 108:-0.747018 109:-1 110:-1 111:-1 112:-1 113:-1 114:-0.807699 115:-1 116:-1 117:-1 118:-1 119:-0.682063 120:-0.805136 121:-0.933336 122:-1 123:-0.904277 124:-0.876928 125:-0.866672 126:-0.784624 127:-1 128:-1 129:-1 130:-0.71283 131:-1 132:-1 133:-0.733331 134:-0.842742 135:-1 136:-0.805138 137:-0.928208 138:-1 139:-1 140:-1 141:-1 142:-1 143:-1 144:-1 145:-1 146:-1 147:-0.825648 148:-1 149:-1 150:-0.958976 151:-1 152:-1 153:-0.682063 154:-1 155:-0.958976 156:-1 157:-1 158:-1 159:-1 160:-1 161:-1 162:-1 163:-1 164:-0.92308 165:-0.966435 166:-1 167:-1 168:-0.94872 169:-0.907696 170:-0.89744 171:-1 172:-0.7436 173:-0.876928 174:-0.723088 175:-1 176:-0.979488 177:-0.805138 178:-1 179:-0.747018 180:-1 181:-0.79488 182:-1 183:-1 184:-0.852996 185:-0.805138 186:-1 187:-0.600016 188:-1 189:-1 190:-1 191:-1 192:-1 193:-1 194:-1 195:-1 196:-1 197:-1 198:-1 199:-1 200:-1 201:-0.938464 202:-0.835904 203:-1 204:-1 205:-1 206:-1 207:-1 208:-1 209:-1 210:-0.876928 211:-0.528221 212:-1 213:-1 214:-1 215:-1 216:-1 217:-0.955557 218:-0.364127 219:-1 220:-0.89744 221:-0.384652 222:-1 223:-1 224:-0.887184 225:-1 226:-0.846161 227:-1 228:-0.856417 229:-1 230:-1 231:-0.589733 232:-1 233:-1 234:-0.7436 235:-1 236:-1 237:-0.866672 238:-1 239:-1 240:-1 241:-0.958976 242:-1 243:-1 244:-1 245:-1 246:-1 247:-0.805138 248:-1 249:-0.702578 250:-1 251:-0.84616 252:-0.835904 253:-0.425659 254:-0.856417 255:-0.702578 256:-1 257:-1 258:-1 259:-0.928208 260:-1 261:-0.852996 262:-1 263:-1 264:-0.881031 265:-1 266:-0.902568 267:-1 268:-0.79488 269:-1 270:-1 271:-1 272:-0.89744 273:-1 274:-0.651299 275:-1 276:-0.866672 277:-0.89744 278:-1 279:-1 280:-0.928208 281:-1 282:-1 283:-1 284:-0.887184 285:-1 286:-0.92479 287:-0.89744 288:-0.533339 289:-1 290:-0.846161 291:-0.55488 292:-1 293:-0.71283 294:-1 295:-1 296:-1 297:-1 298:-1 299:-0.712818 300:-1 301:-0.917952 302:-1 303:-1 304:-1 305:-1 306:-1 307:-0.732065 308:-1 309:-1 310:-1 311:-1 312:-1 313:-0.630766 314:-0.856417 315:-0.748726 316:-1 317:-1 318:-1 319:-0.835904 320:-1 321:-1 322:-0.89744 323:-1 324:-1 325:-0.958976 326:-1 327:-1 328:-0.856417 329:-1 330:-1 331:-0.856417 332:-1 333:-1 334:-0.894509 335:-1 336:-1 337:-1 338:-1 339:-0.781195 340:-1 341:-1 342:-1 343:-0.712834 344:-1 345:-0.835904 346:-1 
1.722033899959403 0.3294154260818286 1.702300781566514 1.174171452590449 1.580451518773728 1.26479362572898 1.639582521275071 2 1.303020475154035 1.363458913446439 0:-0.623773 1:-0.777228 2:-1 3:-1 4:-1 5:-1 6:-0.861401 7:-1 8:-1 9:-1 10:-0.584174 11:-0.435667 12:-0.90594 13:-1 14:-1 15:-1 16:-1 17:-0.665853 18:-1 19:-1 20:-1 21:-0.663369 22:-1 23:-0.828871 24:-1 25:-0.785501 26:-0.811902 27:-0.683168 28:-1 29:-1 30:-1 31:-1 32:-1 33:-1 34:-1 35:-1 36:-1 37:-1 38:-0.9208 39:-1 40:-1 41:-1 42:-1 43:-1 44:-1 45:-0.465345 46:-0.44554 47:-1 48:-1 49:-0.899586 50:0.0930301 51:-1 52:-1 54:-1 55:-1 56:-1 57:-0.722798 58:-0.901 59:-0.50495 60:-1 61:-0.693068 62:-1 63:-1 64:-1 65:-0.9307 66:-1 67:-1 68:-1 69:-0.405934 70:-0.9307 71:-1 72:-1 73:-1 74:-0.623765 75:-1 76:-1 77:-1 78:-1 79:-1 80:-1 81:-1 82:-0.8416 83:-1 84:-0.861401 85:-1 86:-1 87:-1 88:-1 89:-1 90:-0.9406 91:-0.702997 92:-0.861401 93:-0.901 94:-0.376257 95:-1 96:-1 97:-0.874129 98:-0.8713 99:-1 100:-1 101:-1 102:-1 103:-1 104:-0.859421 105:-1 106:-0.9307 107:-1 108:-1 109:-1 110:-1 111:-1 112:-0.287158 113:-1 114:-0.814374 115:-1 116:-1 117:-1 118:-1 119:-1 120:-1 121:-1 122:-1 123:-0.815182 124:-1 125:-1 126:-1 127:-1 128:-0.9109 129:-0.28316 130:-1 131:-1 132:-0.445547 133:-0.93565 134:-1 135:-1 136:-1 137:0.039599 138:-0.811902 139:-1 140:-1 141:-1 142:-0.44554 143:-1 144:-1 145:-1 146:-1 147:-0.831683 148:-1 149:-1 150:-1 151:-0.683168 152:-0.901 153:-0.693099 154:-1 155:-1 156:-1 157:-1 158:-0.7921 159:-0.762402 160:-1 161:-1 162:-0.851501 163:-1 164:-0.92575 165:-1 166:-1 167:-0.782178 168:-0.9505 169:-0.9109 170:-0.901 171:-0.9307 172:-1 173:-1 174:-1 175:-1 176:-1 177:-0.623765 178:-0.901 179:-1 180:-0.8416 181:-1 182:-0.901 183:-1 184:-0.858099 185:-0.811902 186:-0.92575 187:-0.6139 188:-1 189:-1 190:-1 191:-1 192:-1 193:-1 194:-1 195:-1 196:-1 197:-1 198:-1 199:-1 200:0.029705 201:-0.9406 202:-1 203:-1 204:-1 205:-1 206:-0.777248 207:-1 208:-1 209:-1 210:-1 211:-1 212:-0.518153 213:-1 214:-0.901 215:0.996013 216:-0.835 217:-1 218:-0.386137 219:-1 220:-1 221:-1 222:-1 223:-0.837566 224:-1 225:-0.774282 226:-0.851501 227:-0.782202 228:-1 229:-0.702997 230:-1 231:-0.735973 232:-1 233:-1 234:-1 235:-0.802 236:-1 237:-1 238:-1 239:-1 240:-0.256011 241:-1 242:-1 243:-0.7525 244:-0.80198 245:-0.811902 246:-0.678248 247:-0.811902 248:-1 249:-0.712902 250:-1 251:-1 252:-1 253:-1 254:-1 255:-1 256:-0.8845 257:-1 258:-0.851501 259:-0.9307 260:-1 261:-1 262:-1 263:-1 264:-0.88516 265:-1 266:-1 267:-1 268:-1 269:-1 270:-1 271:-0.227721 272:-1 273:-1 274:-1 275:-1 276:-1 277:-1 278:-1 279:-0.643567 280:-1 281:-1 282:-1 283:-1 284:-0.8911 285:-0.594055 286:-0.9274 287:-1 288:-0.871287 289:-0.60396 290:-1 291:-1 292:-1 293:-1 294:-1 295:-1 296:-1 297:-1 298:-0.346563 299:-0.722772 300:-0.8713 301:-0.9208 302:-1 303:-1 304:-0.68815 305:-1 306:-1 307:-1 308:-0.6139 309:-0.90099 310:-1 311:-1 312:-1 313:-1 314:-1 315:-1 316:-1 317:-1 318:-1 319:-1 320:-0.623761 321:-1 322:-0.901 323:-1 324:-1 325:-1 326:-1 327:-0.811902 328:-1 329:-1 330:-1 331:-0.861401 332:-0.797048 333:-0.81685 334:-1 335:-1 336:-1 337:-1 338:-1 339:-1 340:-0.859421 341:-0.722798 342:-0.81685 343:-1 344:-0.9208 345:-0.8416 346:-1 
2 0.8296998924576147 0.1432906443847957 2 1.367460107175265 1.561810352922335 2 2 2 2 0:-1 1:-0.420603 2:-1 3:-1 4:-0.839766 5:-1 6:-0.759649 7:-1 8:-1 9:-0.862656 10:-1 11:-1 12:-1 13:-1 14:-1 15:-0.7854 16:-1 17:-0.517173 18:-0.862656 19:-0.502131 20:-0.888408 21:-0.854073 22:-0.596553 23:-0.703238 24:-1 25:-1 26:-0.836905 27:-1 28:-0.68907 29:-1 30:-0.587968 31:-1 32:-0.364783 33:-1 34:-1 35:-0.776819 36:-1 37:-0.845488 38:-0.931328 39:-1 40:-0.832612 41:-0.95708 42:-0.867806 43:-0.648052 44:-1 45:-1 46:-1 47:-1 48:-0.622308 49:-0.825868 50:-1 51:-1 52:-1 53:-0.133017 54:-1 55:-0.931328 56:-1 57:-0.759646 58:-0.91416 59:-1 60:-0.622308 61:-0.866948 62:-0.965664 63:-1 64:-0.7854 65:-0.939912 66:-0.873243 67:-1 68:-0.690978 69:-0.742477 70:-1 71:-0.82832 72:-1 73:-0.665224 74:-0.510716 75:-0.856933 76:-1 77:-0.862656 78:-1 79:-1 80:-0.857506 81:-1 82:-0.862656 83:-0.582246 84:-0.879825 85:-1 86:-0.369071 87:-1 88:-0.759646 89:-0.948496 90:-1 91:-1 92:-0.759649 93:-1 94:-1 95:-1 96:-0.832612 97:-1 98:-0.888408 99:-1 100:-0.759646 101:-1 102:-1 103:-1 104:-0.51246 105:-0.776816 106:-0.819736 107:-1 108:-1 109:-1 110:-1 111:-1 112:-0.175991 113:-1 114:-1 115:-0.806858 116:-1 117:-1 118:-1 119:-1 120:-0.918452 121:-1 122:-1 123:-1 124:-0.896992 125:-0.888408 126:-1 127:-1 128:-1 129:-1 130:-1 131:-1 132:-1 133:-1 134:-1 135:-1 136:-1 137:-1 138:-0.836905 139:-1 140:-0.816875 141:-1 142:-0.759646 143:-0.915114 144:-0.93562 145:-0.822597 146:-0.862656 147:-1 148:-0.725312 149:-1 150:-1 151:-1 152:-1 153:-0.467791 154:-0.814014 155:-1 156:-0.948496 157:-1 158:-1 159:-0.587971 160:-1 161:-0.7854 162:-1 163:-1 164:-0.80686 165:-1 166:-1 167:-1 168:-0.95708 169:-0.845488 170:-0.91416 171:-0.939912 172:-0.3562 173:-0.896992 174:-1 175:-1 176:-1 177:-1 178:-0.91416 179:-1 180:-0.862656 181:-1 182:-1 183:-1 184:-1 185:-1 186:-1 187:-1 188:-0.824026 189:-0.845489 190:-0.879825 191:-1 192:-0.639474 193:-0.793984 194:-1 195:-1 196:-0.871241 197:-1 198:-1 199:-0.763942 200:-1 201:-0.896992 202:-0.450656 203:-0.690978 204:-0.845489 205:-1 206:-0.806858 207:-1 208:-1 209:-0.91416 210:-1 211:-1 212:-0.791123 213:-0.845489 214:-0.91416 215:-1 216:-0.5708 217:-1 218:-1 219:-0.708146 220:-1 221:-1 222:-0.416293 223:-0.859159 224:-0.905576 225:-1 226:-0.613722 227:-0.811154 228:-1 229:-1 230:-0.839049 231:-0.885547 232:-1 233:-0.8927 234:-1 235:-1 236:-0.80686 237:-1 238:-0.776819 239:-1 240:-1 241:-1 242:-1 243:-1 244:-1 245:-0.836905 246:-1 247:-1 248:-0.763942 249:-1 250:-1 251:-0.87124 252:-0.931328 253:-1 254:-1 255:-1 256:-0.799706 257:-1 258:-1 259:-1 260:-0.845489 261:-1 262:-0.899853 263:-0.526165 264:-1 265:-1 266:-1 267:-0.922744 268:-1 269:-1 270:-1 271:-1 272:-0.91416 273:-1 274:-1 275:-1 276:-0.888408 277:-1 278:-0.84978 279:-1 280:-1 281:-1 282:-0.798275 283:-0.7854 284:-1 285:-1 286:-1 287:-1 288:-0.888408 289:-0.82832 290:-0.871241 291:-1 292:-0.884116 293:-0.278938 294:-1 295:-1 296:-1 297:-0.793983 298:-1 299:-0.879824 300:-0.888408 301:-1 302:-1 303:-0.68411 304:-1 305:-1 306:-1 307:-1 308:-1 309:-1 310:-1 311:-0.841196 312:-1 313:-0.845488 314:-1 315:-1 316:-1 317:-0.759646 318:-1 319:-0.725312 320:-0.918452 321:-0.817591 322:-1 323:-0.908437 324:-1 325:-1 326:-1 327:-1 328:-0.879825 329:-1 330:-1 331:-0.879825 332:-1 333:-1 334:-0.823414 335:-1 336:-0.626604 337:-1 338:-1 339:-0.954219 340:-0.878108 341:-1 342:-0.841196 343:-0.879825 344:-1 345:-0.862656 346:-0.699555 
0.2968874153343569 0.7530472686298313 0.4994111315158098 1.023425381861564 0.03758396738232419 0.7776082461390722 0.5639604647426175 0.3936045246735488 0 0.03991302737265688 0:-0.860033 1:-1 2:-1 3:-1 4:-1 5:-0.867399 6:-0.845301 7:-1 8:-1 9:-0.292832 10:-0.845301 11:-0.790052 12:-0.947512 13:-0.679552 14:-1 15:-1 16:-1 17:-1 18:-0.8232 19:-0.679552 20:-1 21:-1 22:-1 23:-1 24:-1 25:-0.760584 26:-1 27:-1 28:-0.599746 29:-1 30:-1 31:-1 32:-1 33:-1 34:-1 35:-1 36:-1 37:-0.90055 38:-1 39:-1 40:-0.353574 41:-1 42:-1 43:-1 44:-1 45:-0.70165 46:-1 47:-1 48:-1 49:-1 50:-0.593361 51:-1 52:-0.867399 53:-1 54:-1 55:-1 56:-1 57:-0.690598 58:-1 59:-0.17125 60:-0.270707 61:-1 62:-1 63:-0.48066 64:-1 65:-1 66:-1 67:-0.831488 68:-1 69:-1 70:-0.92265 71:-1 72:-1 73:-1 74:-0.580103 75:-0.815833 76:-0.624303 77:-1 78:-1 79:-1 80:-1 81:-1 82:-0.6464 83:-1 84:-1 85:-1 86:-1 87:-1 88:-1 89:-1 90:-1 91:-1 92:-1 93:-1 94:-0.76795 95:-1 96:-1 97:-0.578523 98:-1 99:-1 100:-1 101:-1 102:-1 103:-1 104:-1 105:-1 106:-1 107:-1 108:-1 109:-1 110:-1 111:-1 112:-1 113:-1 114:-0.792811 115:-1 116:-1 117:-0.828725 118:-0.513805 119:-1 120:-1 121:-1 122:-1 123:-1 124:-1 125:-1 126:-0.76795 127:-1 128:-1 129:1 130:-1 131:-0.856356 132:-0.226533 133:-1 134:-1 135:-1 136:-0.790052 137:-0.0718271 138:-1 139:-0.8895 140:-1 141:-1 142:-1 143:-0.781456 144:-0.917125 145:-1 146:-1 147:-0.81215 148:-0.6464 149:-1 150:-1 151:-1 152:-0.6685 153:-1 154:-1 155:-1 156:-1 157:-0.734802 158:-1 159:-1 160:-0.419876 161:-1 162:-1 163:-1 164:-1 165:-1 166:-1 167:-0.7569 168:-1 169:-1 170:-1 171:-0.613264 172:-0.4475 173:-0.9337 174:-0.403299 175:-0.779 176:-1 177:-1 178:-0.8895 179:-1 180:-1 181:-1 182:-1 183:-1 184:-0.524847 185:-1 186:-0.917125 187:-1 188:-0.773473 189:-1 190:-1 191:-1 192:-0.845301 193:-1 194:-0.85635 195:-1 196:-0.668502 197:-1 198:-1 199:-1 200:-0.56905 201:-1 202:-1 203:-1 204:-1 205:-1 206:-1 207:-1 208:-0.668502 209:-0.94475 210:-1 211:-1 212:-0.731117 213:-1 214:-0.8895 215:-0.00996797 216:-1 217:-0.904233 218:-0.314899 219:-0.436455 220:-1 221:-1 222:-1 223:-1 224:-0.7569 225:-0.748062 226:-1 227:-1 228:-1 229:-1 230:-1 231:-1 232:-1 233:-1 234:-1 235:-1 236:-1 237:-1 238:-1 239:-1 240:0.66058 241:-1 242:-1 243:-1 244:-1 245:-1 246:-0.640872 247:-1 248:-1 249:-1 250:-1 251:-1 252:-1 253:-1 254:-1 255:-1 256:-0.871083 257:-1 258:-0.502752 259:-0.92265 260:-1 261:-1 262:-0.871083 263:-0.796681 264:-0.87182 265:-1 266:-1 267:-0.90055 268:-0.779 269:-1 270:-1 271:-0.56905 272:-1 273:-0.668497 274:-1 275:-1 276:-1 277:-1 278:-1 279:-1 280:-1 281:-1 282:-1 283:-0.861875 284:-1 285:-1 286:-1 287:-1 288:-1 289:-1 290:-0.834251 291:-1 292:-1 293:-1 294:-1 295:-0.8895 296:-0.795575 297:-1 298:-0.756902 299:-1 300:-1 301:-0.9116 302:-1 303:-1 304:-1 305:-1 306:-1 307:-1 308:-1 309:-0.77901 310:-0.8232 311:-0.795575 312:-1 313:-1 314:-0.845301 315:-1 316:-1 317:-1 318:-1 319:-0.6464 320:-0.895025 321:-0.765188 322:-0.8895 323:-1 324:-1 325:-1 326:-1 327:-1 328:-1 329:-1 330:-1 331:-1 332:-1 333:0.022089 334:-1 335:-1 336:-0.519335 337:-1 338:-1 339:-1 340:-1 341:-1 342:-0.795575 343:-1 344:-0.9116 345:-1 346:-1 
2 0.7340079335315999 0 0 2 2 2 0.4481389073850801 1.285562197345775 2 0:-0.895753 1:-0.907413 2:-1 3:-1 4:-1 5:-1 6:-1 7:-1 8:-0.50616 9:-1 10:-0.884781 11:-0.843631 12:-1 13:-0.761332 14:-0.522663 15:-1 16:-1 17:-0.444453 18:-1 19:-1 20:-1 21:-0.860091 22:-1 23:-1 24:-0.59838 25:-1 26:-1 27:-0.86832 28:-0.850946 29:-1 30:-1 31:-1 32:-0.69549 33:-0.864205 34:-0.615525 35:-1 36:-1 37:-0.85186 38:-1 39:-1 40:-0.67903 41:-1 42:-1 43:-1 44:-0.563791 45:-0.55558 46:-1 47:-1 48:-0.818942 49:-0.916525 50:-0.697137 51:-0.897125 52:-1 53:-1 54:-0.753101 55:-0.736624 56:-1 57:-1 58:-1 59:-1 60:-0.818942 61:-0.872435 62:-1 63:-1 64:-1 65:-0.827156 66:-0.635381 67:-1 68:-0.851861 69:-1 70:-1 71:-0.8354 72:-0.95885 73:-1 74:-0.843631 75:-1 76:-1 77:-0.86832 78:-1 79:-0.395041 80:-0.726764 81:-0.6708 82:-1 83:-1 84:-1 85:-1 86:-1 87:-1 88:-0.308618 89:-1 90:-1 91:-1 92:-1 93:-0.9177 94:-1 95:-1 96:-0.839515 97:-0.790724 98:-1 99:-0.96708 100:-1 101:-1 102:-1 103:-1 104:-0.883135 105:-1 106:-1 107:-0.604928 108:-1 109:-0.873806 110:-0.69135 111:-0.954735 112:-1 113:-1 114:-1 115:-1 116:-1 117:-1 118:-0.637884 119:-1 120:-1 121:-0.946505 122:-1 123:-1 124:-0.90124 125:-0.89301 126:-0.82717 127:-1 128:-0.92593 129:-0.702071 130:-1 131:-1 132:-1 133:-1 134:-1 135:-1 136:-0.687263 137:-0.88478 138:-0.843631 139:-0.8354 140:-1 141:-1 142:-1 143:-0.83723 144:-1 145:-1 146:-1 147:-1 148:-0.86832 149:-0.604963 150:-1 151:-1 152:-1 153:-1 154:-0.821684 155:-1 156:-0.95062 157:-0.802482 158:-1 159:-0.407397 160:-0.855975 161:-0.5885 162:-0.506172 163:-1 164:-1 165:-0.946131 166:-1 167:-1 168:-1 169:-0.777772 170:-1 171:-1 172:-1 173:-0.95062 174:-1 175:-0.8354 176:-0.950616 177:-0.843631 178:-1 179:-1 180:-1 181:-1 182:-0.9177 183:-0.8354 184:-0.882036 185:-1 186:-1 187:-1 188:-1 189:-1 190:-0.539095 191:-1 192:-1 193:-1 194:-1 195:-1 196:-0.876551 197:-0.654314 198:-0.703722 199:-1 200:-1 201:-0.95062 202:-0.73664 203:-1 204:-1 205:-0.674916 206:-0.814823 207:-1 208:-0.629622 209:-1 210:-1 211:-1 212:-1 213:-0.851861 214:-0.8354 215:-1 216:-0.862833 217:-1 218:-1 219:-0.720182 220:-1 221:-1 222:-0.720182 223:-1 224:-1 225:-1 226:-0.753101 227:-1 228:-1 229:-1 230:-0.845687 231:-0.670773 232:-1 233:-1 234:-0.5885 235:-0.8354 236:-1 237:-1 238:-1 239:-1 240:-1 241:-0.901232 242:-0.761332 243:-0.3827 244:-0.9177 245:-0.687263 246:-0.732523 247:-1 248:-1 249:-1 250:-0.610451 251:-1 252:-1 253:-0.539116 254:-1 255:-1 256:-0.903983 257:-0.621418 258:-0.876551 259:-0.769546 260:-0.703722 261:-1 262:-1 263:-0.848568 264:-1 265:-1 266:-0.921815 267:-1 268:-1 269:-0.899183 270:-1 271:-1 272:-0.9177 273:-0.753098 274:-1 275:-1 276:-1 277:-0.95885 278:-0.855975 279:-1 280:-1 281:-1 282:-1 283:-0.79425 284:-0.90947 285:-1 286:-0.939647 287:-1 288:-1 289:-1 290:-1 291:-1 292:-0.888895 293:-0.769558 294:-1 295:-0.95885 296:-1 297:-1 298:-1 299:-0.539092 300:-1 301:-1 302:-1 303:-1 304:-1 305:-1 306:-1 307:-1 308:-1 309:-0.9177 310:-0.86832 311:-0.69549 312:-1 313:-0.85186 314:-1 315:-1 316:-1 317:-1 318:-0.895753 319:-0.86832 320:-0.921815 321:-1 322:-1 323:-0.561045 324:-1 325:-0.901232 326:-1 327:-1 328:-1 329:-0.838691 330:-1 331:-1 332:-1 333:-1 334:-0.830697 335:-1 336:-1 337:-1 338:-1 339:-1 340:-1 341:-1 342:-1 343:-0.769561 344:-0.93416 345:-0.604928 346:-1 
0.6375513670780206 0.06574121571450792 0 0.7638125252509632 1.135358724841031 1.90323710430619 1.436966786305423 0 0.8217629269216542 0 0:-1 1:-1 2:-0.830306 3:-0.87879 4:-1 5:-0.56363 6:-1 7:-1 8:-0.75756 9:-1 10:-1 11:-0.769684 12:-1 13:-1 14:-1 15:-1 16:-1 17:-1 18:-0.806048 19:-0.648464 20:-1 21:-1 22:-1 23:-1 24:-1 25:-1 26:-1 27:-0.612128 28:-1 29:-0.854535 30:-1 31:-1 32:-1 33:-0.600007 34:-1 35:-1 36:-0.903024 37:-1 38:-1 39:-1 40:-1 41:-0.93939 42:-1 43:-1 44:-1 45:-1 46:-1 47:-0.711522 48:-1 49:-1 50:-1 51:-0.848475 52:-1 53:-1 54:-1 55:-0.806064 56:-0.915146 57:-1 58:-1 59:-0.69695 60:-1 61:-1 62:-1 63:-1 64:-1 65:-0.575758 66:-0.820998 67:-1 68:-1 69:-1 70:-0.830306 71:-1 72:-0.81818 73:-1 74:-1 75:-1 76:-0.793928 77:-0.806048 78:-1 79:-1 80:-1 81:-0.75756 82:-1 83:-0.705032 84:-0.660614 85:-1 86:-1 87:-1 88:-1 89:-0.927268 90:-0.854548 91:-1 92:-1 93:-1 94:-1 95:-0.333297 96:-0.763621 97:-0.845878 98:-0.842414 99:-0.951512 100:-1 101:-0.884841 102:-1 103:-0.709074 104:-0.827869 105:-0.842414 106:-1 107:-1 108:-1 109:-1 110:-1 111:-0.933329 112:-0.418197 113:-0.810709 114:-0.0909193 115:-1 116:-0.69695 117:-1 118:-1 119:-1 120:-0.884841 121:-1 122:-1 123:-0.886861 124:-1 125:-1 126:-1 127:-0.951512 128:-1 129:-0.561179 130:-1 131:-0.921213 132:-1 133:-1 134:-1 135:-1 136:-1 137:-0.660612 138:-1 139:-1 140:-1 141:-1 142:-1 143:-0.880127 144:-1 145:-1 146:-0.806048 147:-1 148:-1 149:-1 150:-1 151:-1 152:-0.87878 153:-1 154:-1 155:-0.854544 156:-0.927268 157:-0.709074 158:-0.745438 159:-1 160:-1 161:-1 162:-1 163:-1 164:-0.909085 165:-0.841325 166:-0.915146 167:-1 168:-1 169:-1 170:-0.51516 171:-0.915146 172:-1 173:-1 174:-1 175:-1 176:-0.951516 177:-0.769684 178:-1 179:-0.850495 180:-1 181:-0.39394 182:-0.87878 183:-1 184:-0.478779 185:-1 186:-1 187:-1 188:-1 189:-1 190:-0.830293 191:-1 192:-1 193:-1 194:-1 195:-1 196:-1 197:-1 198:-0.781806 199:-1 200:-1 201:-0.927268 202:-0.806048 203:-1 204:-1 205:-0.760591 206:-1 207:-1 208:-1 209:-1 210:-1 211:-1 212:-1 213:-1 214:-1 215:-1 216:-1 217:-1 218:-1 219:-1 220:-0.87878 221:-1 222:-1 223:-0.204502 224:-1 225:-0.723621 226:-1 227:-1 228:-1 229:-1 230:-1 231:-1 232:-1 233:-0.848475 234:-1 235:-1 236:-0.909085 237:-0.684854 238:-1 239:-1 240:-1 241:-0.903032 242:-0.296987 243:-0.69695 244:-1 245:-0.539406 246:-0.212129 247:-1 248:-1 249:-0.648464 250:-0.713116 251:-0.727269 252:-1 253:-1 254:-1 255:-1 256:-1 257:-1 258:-1 259:-0.830306 260:-1 261:-1 262:-1 263:-1 264:-1 265:-1 266:-0.884841 267:-0.890902 268:-1 269:-1 270:-1 271:-1 272:-0.87878 273:-1 274:-0.175779 275:-1 276:-1 277:-0.75758 278:-1 279:-1 280:-1 281:-0.849148 282:-1 283:-0.848475 284:-1 285:-1 286:-1 287:-1 288:-0.921207 289:-1 290:-1 291:-1 292:-1 293:-1 294:-1 295:-1 296:-1 297:-1 298:-1 299:-1 300:-0.842414 301:-1 302:-0.93939 303:-1 304:-1 305:-1 306:-1 307:-1 308:-1 309:-0.69697 310:-1 311:-1 312:-1 313:-1 314:-1 315:-1 316:-1 317:-1 318:-1 319:-0.612128 320:-0.769701 321:-1 322:-1 323:-1 324:-1 325:-0.951512 326:-1 327:-0.769684 328:-1 329:-1 330:-1 331:-1 332:-1 333:-0.775743 334:-1 335:-1 336:-1 337:-1 338:-1 339:-1 340:-1 341:-1 342:-1 343:-1 344:-0.806064 345:-1 346:-1 
2 0 0.5609854001170761 0.7325900164428906 0.0985243122108314 0 1.289112056603736 0 0.4104039432292857 0.5565004529323365 0:-1 1:-0.80434 2:-1 3:-0.95652 4:-0.918837 5:-0.895648 6:-0.878257 7:-1 8:-0.82608 9:-0.304352 10:-0.756513 11:-0.50437 12:-1 13:-1 14:-1 15:-0.7826 16:-1 17:-0.90217 18:-1 19:-1 20:-1 21:-1 22:-0.863763 23:-0.699366 24:-0.363508 25:-0.811587 26:-1 27:-0.860864 28:-0.685013 29:-1 30:-1 31:-1 32:-1 33:-0.856516 34:-1 35:-1 36:-0.930432 37:-1 38:-0.860864 39:-0.5652 40:-0.660856 41:-1 42:-0.866081 43:-1 44:-1 45:-0.530416 46:-1 47:-0.689578 48:-0.80869 49:-1 50:-0.359976 51:-1 52:-1 53:-1 54:-0.739121 55:-0.930432 56:-1 57:-0.51302 58:-1 59:-0.13045 60:-0.426114 61:-0.865212 62:-1 63:-1 64:-0.34785 65:-0.939128 66:-0.871589 67:-0.867386 68:-1 69:-0.739117 70:-1 71:-1 72:-0.95652 73:-0.321711 74:0.156521 75:-0.855067 76:-1 77:-1 78:-1 79:-1 80:-1 81:-0.82608 82:-0.721728 83:-0.576796 84:-1 85:-1 86:-0.360888 87:-1 88:-1 89:-1 90:-1 91:-1 92:-0.878257 93:-0.91304 94:-0.817384 95:-1 96:-1 97:-0.889437 98:-0.773904 99:-1 100:-1 101:-0.834776 102:-1 103:-1 104:-1 105:-1 106:-1 107:-1 108:-1 109:-1 110:-1 111:-1 112:0.252166 113:-0.864208 114:-0.836949 115:-0.804338 116:-1 117:-0.865212 118:-1 119:-0.730423 120:-1 121:-1 122:-1 123:-1 124:-1 125:-0.773904 126:-1 127:-1 128:-0.921736 129:-1 130:-0.75651 131:-0.971738 132:-1 133:-1 134:-0.733338 135:-1 136:-0.834777 137:-0.452179 138:-0.50437 139:-1 140:-1 141:-1 142:-1 143:-1 144:-1 145:-1 146:-1 147:-1 148:-0.860864 149:-1 150:-1 151:-1 152:-1 153:-1 154:-1 155:-1 156:-1 157:-1 158:-1 159:-0.791298 160:-1 161:-0.7826 162:-1 163:-0.860864 164:-0.93478 165:-1 166:-1 167:-0.808688 168:-1 169:-0.843472 170:-1 171:-0.756526 172:-0.34785 173:-1 174:-0.530416 175:-1 176:-1 177:-1 178:-1 179:-1 180:-1 181:-1 182:-1 183:-0.82608 184:-0.252168 185:-1 186:-0.93478 187:-0.660856 188:-1 189:-1 190:-1 191:-1 192:-0.756513 193:-0.930432 194:-1 195:-1 196:-0.869561 197:-1 198:-1 199:-1 200:-0.660882 201:-0.947824 202:-1 203:-1 204:-1 205:-1 206:-0.608676 207:-1 208:-1 209:-0.95652 210:-1 211:-1 212:-0.788398 213:-1 214:-0.91304 215:-0.80521 216:-0.855067 217:-1 218:-0.730423 219:-1 220:-1 221:-1 222:-1 223:-1 224:-1 225:-1 226:-1 227:-1 228:-1 229:-1 230:-1 231:-1 232:-1 233:-0.8913 234:-1 235:-1 236:-1 237:-0.886952 238:-1 239:-1 240:-0.0199128 241:-1 242:-1 243:-1 244:-1 245:-0.50437 246:-1 247:-0.50437 248:-1 249:-0.747818 250:-1 251:-1 252:-0.930432 253:-1 254:-0.878257 255:-1 256:-0.797093 257:-0.599982 258:-0.869561 259:-1 260:-0.843473 261:-1 262:-1 263:-0.679988 264:-1 265:-0.621732 266:-1 267:-1 268:-0.91304 269:-1 270:-1 271:-0.660856 272:-0.91304 273:-1 274:-1 275:-1 276:-1 277:-1 278:-1 279:-0.686947 280:-1 281:-1 282:-1 283:-1 284:-1 285:-0.82173 286:-0.93623 287:-1 288:-1 289:-1 290:-1 291:-1 292:-1 293:-0.51302 294:-1 295:-0.95652 296:-1 297:-1 298:-1 299:-0.939128 300:-1 301:-1 302:-1 303:-1 304:-1 305:-0.608676 306:-1 307:-0.77282 308:-0.660856 309:-0.95652 310:-0.860864 311:-0.517409 312:-1 313:-0.686962 314:-1 315:-1 316:-1 317:-1 318:-1 319:-0.860864 320:-0.834776 321:-0.815211 322:-0.91304 323:-1 324:-1 325:-1 326:-0.80869 327:-1 328:-1 329:-1 330:-1 331:-0.878257 332:-0.82173 333:-0.356532 334:-1 335:-1 336:-1 337:-1 338:-1 339:-1 340:-1 341:-1 342:-0.839124 343:-1 344:-1 345:-1 346:-0.695635 
